%YAML:1.0
---
opencv_ml_svm:
   format: 3
   svmType: C_SVC
   kernel:
      type: LINEAR
   C: 2.6699999999999999e+00
   term_criteria: { epsilon:1.1920928955078125e-07, iterations:1000 }
   var_count: 64
   class_count: 3
   class_labels: !!opencv-matrix
      rows: 3
      cols: 1
      dt: i
      data: [ 0, 1, 2 ]
   sv_total: 3
   support_vectors:
      - [ -5.76331558e-06, -2.56857362e-08, 0., 0., -8.50503596e-08, 0.,
          0., 0., 0., 0., 0., 0., 0., 0., 0., 0., -4.20961915e-05,
          -8.65581296e-06, -3.04300329e-06, -2.05779159e-07,
          -1.51677807e-06, -1.87492901e-08, -3.15825702e-07,
          -1.20836049e-07, -2.75102224e-07, -3.08202004e-07,
          -2.24656191e-07, -1.60728291e-07, -1.22492224e-06,
          -8.50892604e-07, -1.05648842e-05, -7.43482160e-05,
          -2.39525452e-05, -1.80276845e-06, -2.69253796e-05,
          -4.21280602e-05, -4.05776045e-05, -1.32473961e-05,
          -4.23262918e-06, -1.36858789e-05, -2.15066211e-05,
          -2.51668826e-05, -2.14756383e-05, -2.89727868e-05,
          -2.48303277e-05, -2.01958246e-05, -8.68242478e-06,
          -1.81250944e-05, 4.94461856e-05, -4.56647722e-05,
          5.36980951e-06, 6.00152271e-05, -4.92820764e-05,
          -2.99767453e-05, 2.53587841e-05, 3.71260467e-05,
          -8.28078646e-06, -3.00102874e-05, 5.62798341e-05,
          -4.46976446e-06, -1.38402020e-05, 6.83658527e-06,
          6.35574397e-05, 2.04634352e-06 ]
      - [ -7.51009284e-05, -1.73860224e-06, -4.24634772e-09,
          -1.86214666e-09, -4.77794799e-07, 0., -8.32777292e-10,
          -1.86214666e-09, -1.01062216e-08, -2.49833176e-09, 0.,
          -9.71176828e-09, -5.88862470e-09, 0., -4.99666353e-09,
          -1.86214666e-09, -2.81372399e-04, 3.43758643e-06,
          -2.12369050e-05, 2.22949166e-06, -2.75994335e-05,
          1.96503988e-05, 5.68794849e-06, -4.02312435e-06,
          -1.54074337e-06, -1.40302818e-05, -5.81005179e-06,
          -1.83753436e-05, 3.25614310e-05, 3.34344190e-06,
          -1.89053444e-05, -1.11462963e-04, -1.98414637e-05,
          3.89242014e-05, -5.04191412e-05, -7.48129532e-05,
          -4.82141841e-05, -9.03310429e-05, 1.54926165e-05,
          -6.22645384e-05, 7.26592816e-06, -5.74205524e-06,
          -5.54865574e-06, -1.51689692e-05, -4.37225390e-06,
          -4.00051249e-06, -6.92458925e-05, -5.05645075e-05,
          4.55734880e-06, -6.63400715e-05, -4.84929342e-06,
          9.06920759e-05, -4.97755682e-05, 2.25893091e-05,
          1.93797096e-05, 1.94716922e-05, 2.11495226e-05, 1.02342128e-05,
          3.66032036e-05, -2.61559580e-05, 8.01632450e-06,
          6.00824615e-06, -1.17563977e-05, 3.40640581e-05 ]
      - [ -3.72568538e-05, -1.36858534e-06, -1.46934156e-07,
          -1.02830518e-06, 1.56375357e-08, -5.18702393e-07,
          -1.03622287e-05, -1.21128696e-05, -1.59134902e-06,
          8.23125049e-07, 1.30007413e-06, -2.02656878e-07,
          -1.93065011e-06, -3.14893191e-06, -6.18587546e-06,
          -1.69265240e-05, 1.96430683e-05, 9.03605087e-06,
          -5.97388062e-05, 4.68912532e-07, -2.22342969e-05,
          -8.19330944e-06, 1.66840382e-05, 9.32083640e-06,
          5.09282881e-06, -1.18028520e-05, -2.13978528e-05,
          -2.64477767e-05, -8.61586159e-05, -4.01302214e-06,
          1.40325046e-05, 1.33287149e-05, 9.51210859e-06, 1.03849343e-05,
          5.34760620e-05, 2.87205839e-05, -1.56748338e-05,
          1.33361880e-06, -6.91751557e-05, -3.51985068e-06,
          -3.84026134e-05, 3.46908382e-05, 6.87385545e-05,
          -2.66492243e-05, -2.97744064e-05, 2.37798777e-05,
          3.90837413e-05, -3.02156095e-05, -4.31792250e-06,
          -1.20679206e-05, -8.81931271e-07, 2.10957842e-05,
          1.12365205e-05, -1.31812283e-06, 1.14425011e-05,
          1.77917609e-05, 1.81779887e-05, 9.78229764e-06, 3.95385678e-06,
          7.35213780e-06, 8.44773422e-06, 5.50416871e-06,
          -9.47908666e-06, -2.06641721e-06 ]
   uncompressed_sv_total: 113
   uncompressed_support_vectors:
      - [ 9.00056458e+02, 0., 0., 0., 16., 0., 0., 0., 0., 0., 0., 0.,
          0., 0., 0., 0., 6.70834961e+03, 1.20361455e+04, 6.00419336e+03,
          6.03660205e+03, 1.02837781e+03, 2.23913818e+03, 1.24382581e+03,
          3.17853302e+02, 4.43705139e+02, 1.33118970e+03, 1.54701233e+03,
          3.53991119e+02, 7.51025879e+03, 8.34335254e+03, 8.73407422e+03,
          5.24770117e+03, 3.55551416e+03, 1.34304727e+04, 1.51072178e+04,
          4.98482178e+03, 1.07003535e+04, 9.80877246e+03, 1.25952070e+04,
          4.66625342e+03, 3.51307886e+03, 2.27366943e+03, 1.79442749e+03,
          2.06886328e+03, 1.62606873e+03, 2.37644189e+03, 1.25319592e+03,
          1.67798169e+03, 8.35040547e+04, 8.44609453e+04, 5.65356211e+04,
          8.23774375e+04, 6.68391641e+04, 8.32764063e+04, 8.32549922e+04,
          8.70009453e+04, 9.48378047e+04, 9.75278203e+04, 7.74327422e+04,
          8.77153281e+04, 8.24121250e+04, 7.72610469e+04, 9.10668125e+04,
          8.28960859e+04 ]
      - [ 1.40706079e+03, 0., 0., 0., 28., 0., 0., 0., 0., 0., 0., 0.,
          0., 0., 0., 0., 2.53265845e+03, 1.17726994e+01, 0., 0., 126.,
          0., 0., 0., 0., 0., 0., 0., 0., 0., 0., 0., 9.30100781e+03,
          1.83288965e+04, 7.31777686e+03, 4.45702686e+03, 8.23652344e+03,
          9.92726270e+03, 1.31650713e+04, 1.19416631e+04, 4.85921448e+02,
          1.78712952e+02, 4.47722664e+01, 6.27010536e+01, 6.58857040e+01,
          9.04456863e+01, 2.06639725e+02, 4.37237671e+02, 9.04804688e+04,
          6.62193906e+04, 4.98509883e+04, 4.47680117e+04, 5.32378945e+04,
          6.47886328e+04, 8.32944531e+04, 7.41139063e+04, 7.97289453e+04,
          9.07630938e+04, 6.79112813e+04, 4.69181602e+04, 4.75934297e+04,
          8.88166875e+04, 8.45851563e+04, 8.77734297e+04 ]
      - [ 0., 0., 0., 0., 0., 0., 0., 0., 0., 0., 0., 0., 0., 0., 0., 0.,
          350., 0., 0., 0., 0., 0., 0., 0., 0., 0., 0., 0., 102., 0.,
          1.41421354e+00, 2.26118140e+03, 6.32455540e+00, 1.41421354e+00,
          1.20879097e+01, 1.02333460e+01, 2.61980400e+01, 5.83095169e+00,
          1.27279215e+01, 7.68041748e+02, 204., 7.07106781e+00, 0., 0.,
          1.43245554e+01, 0., 8.65937901e+00, 0., 5.71252422e+04,
          5.45254805e+04, 3.99969727e+04, 4.24053633e+04, 3.59483516e+04,
          4.14986953e+04, 3.84133086e+04, 6.10806289e+04, 5.46089492e+04,
          4.48220977e+04, 5.57612305e+04, 3.29253594e+04, 3.97546680e+04,
          4.05006172e+04, 3.83743750e+04, 5.65747344e+04 ]
      - [ 8.96045593e+02, 0., 0., 0., 16., 0., 0., 0., 0., 0., 0., 0.,
          0., 0., 0., 0., 1.60798303e+03, 1.41421354e+00, 0., 0., 80.,
          0., 0., 0., 0., 0., 0., 0., 0., 0., 0., 0., 6.67008545e+03,
          7.16287891e+03, 1.65515466e+03, 1.52144678e+03, 2.68491333e+03,
          2.17229907e+03, 1.11688535e+04, 4.79426367e+03, 4.63308746e+02,
          2.55563488e+01, 1.92473602e+01, 3.35142975e+01, 9.13606110e+01,
          4.92854584e+02, 1.72941086e+02, 1.60673389e+03, 8.11171172e+04,
          7.70086875e+04, 5.25609219e+04, 4.20237813e+04, 5.06849609e+04,
          4.67228242e+04, 5.66545938e+04, 7.22639844e+04, 1.04347945e+05,
          6.26590078e+04, 6.41903281e+04, 5.31125703e+04, 4.65280898e+04,
          4.94488711e+04, 6.60380859e+04, 8.18377578e+04 ]
      - [ 0., 0., 0., 0., 0., 0., 0., 0., 0., 0., 0., 0., 0., 0., 0., 0.,
          704., 0., 0., 0., 0., 0., 0., 0., 0., 0., 0., 0., 56., 0.,
          1.41421354e+00, 7.83817749e+02, 0., 0., 0., 0., 8., 0., 0.,
          2.16037094e+02, 334., 0., 0., 0., 0., 0., 0., 0.,
          6.34089766e+04, 4.16328516e+04, 3.74021875e+04, 2.93631660e+04,
          2.60024102e+04, 3.93121445e+04, 4.69517852e+04, 6.38408984e+04,
          4.96494375e+04, 4.57274727e+04, 3.10580430e+04, 3.11728672e+04,
          2.56859160e+04, 4.69143242e+04, 3.92899375e+04, 5.27491953e+04 ]
      - [ 0., 0., 0., 0., 0., 0., 0., 0., 0., 0., 0., 0., 0., 0., 0., 0.,
          230., 0., 0., 0., 0., 0., 0., 0., 0., 0., 0., 0., 230., 0.,
          1.31315145e+01, 5.57995654e+03, 6.38598633e+03, 7.91339648e+03,
          8.53830176e+03, 5.26636230e+03, 5.31525439e+03, 9.08025879e+03,
          4.95970361e+03, 8.20483984e+03, 3.03638965e+03, 2.91637299e+02,
          8.45097809e+01, 1.12256119e+02, 4.63698669e+02, 1.20879097e+01,
          1.34827606e+02, 9.67484741e+02, 6.75512500e+04, 6.31132109e+04,
          4.61750898e+04, 4.35534609e+04, 3.51720391e+04, 4.92033516e+04,
          5.75950898e+04, 8.28524766e+04, 8.32899063e+04, 7.94292578e+04,
          4.35382617e+04, 5.20217031e+04, 4.74191289e+04, 4.61247969e+04,
          7.18234297e+04, 9.77831641e+04 ]
      - [ 0., 0., 0., 0., 0., 0., 0., 0., 0., 0., 0., 0., 0., 0., 0., 0.,
          0., 0., 0., 0., 0., 0., 0., 0., 0., 0., 0., 0., 0., 0., 0., 0.,
          4.24946442e+01, 2.70995522e+01, 7.61577368e+00, 1.77330437e+01,
          2.45858536e+01, 2.19788685e+01, 3.82625542e+01, 2.60094280e+01,
          3.01700878e+01, 3.60741425e+01, 1.34467258e+01, 3.16227770e+00,
          18., 0., 4.45566902e+01, 3.30654106e+01, 6.26948477e+04,
          6.15669766e+04, 4.38594297e+04, 4.42210352e+04, 4.81677969e+04,
          3.92185234e+04, 5.95065742e+04, 5.77893828e+04, 5.82331406e+04,
          6.84358438e+04, 5.07963164e+04, 4.30180625e+04, 4.42911875e+04,
          3.87198945e+04, 5.34496328e+04, 6.83932734e+04 ]
      - [ 0., 0., 0., 0., 0., 0., 0., 0., 0., 0., 0., 0., 0., 0., 0., 0.,
          386., 0., 0., 0., 0., 0., 0., 0., 0., 0., 0., 0., 98., 0.,
          1.41421354e+00, 2.15310303e+03, 2.05225945e+01, 3.06467838e+01,
          1.03030872e+01, 3.77457466e+01, 4.37481308e+01, 2.59235878e+01,
          2.99279785e+01, 6.49069885e+02, 3.11099030e+02, 2.55958786e+01,
          10., 9.05538559e+00, 2.85858536e+01, 8.94427204e+00,
          9.89949512e+00, 1.33603172e+01, 4.94781523e+04, 3.42209414e+04,
          3.86370508e+04, 3.16968145e+04, 2.97312363e+04, 3.02328457e+04,
          3.85889609e+04, 5.41968984e+04, 5.01377734e+04, 3.71506875e+04,
          3.96069453e+04, 2.79429805e+04, 3.46838125e+04, 2.55018945e+04,
          4.42008047e+04, 5.07343281e+04 ]
      - [ 0., 0., 0., 0., 0., 0., 0., 0., 0., 0., 0., 0., 0., 0., 0., 0.,
          294., 0., 0., 0., 0., 0., 0., 0., 0., 0., 0., 0., 122., 0.,
          2.82842708e+00, 2.77673291e+03, 2.89736671e+01, 4.76727448e+01,
          1.89054127e+01, 3.16227770e+00, 5.37201805e+01, 0.,
          4.01202698e+01, 1.02412488e+03, 1.72882462e+02, 3.79398880e+01,
          0., 1.96848717e+01, 1.63245544e+01, 1.61553745e+01,
          2.89173584e+01, 1.92887306e+01, 4.34748438e+04, 4.71298008e+04,
          3.92664375e+04, 4.89836406e+04, 3.39684648e+04, 3.54056875e+04,
          5.09479648e+04, 4.93708672e+04, 5.50103477e+04, 3.69956641e+04,
          3.77185938e+04, 4.00109023e+04, 4.29380547e+04, 4.00071602e+04,
          4.96192031e+04, 4.39127813e+04 ]
      - [ 0., 0., 0., 0., 0., 0., 0., 0., 0., 0., 0., 0., 0., 0., 0., 0.,
          3.14805640e+03, 4.11023193e+03, 2.25178619e+02, 5.58823853e+01,
          9.32443924e+01, 8.95741348e+01, 9.75332031e+01, 2.67408543e+01,
          3.93603172e+01, 5.47197418e+01, 4.40567131e+01, 3.74683075e+01,
          1.13692139e+02, 4.29638550e+02, 3.94595483e+03, 2.99173071e+03,
          7.27798157e+01, 2.56125671e+02, 2.80419971e+03, 2.38963062e+03,
          1.19262317e+03, 1.97969275e+03, 1.03261743e+03, 3.16227770e+00,
          1.13748131e+02, 5.14339790e+01, 2.30849915e+01, 2.47838917e+01,
          16., 8.94427204e+00, 4.48986359e+01, 1.96479645e+01,
          1.02907461e+05, 8.21855156e+04, 6.73722344e+04, 3.92139258e+04,
          7.31611094e+04, 5.10344688e+04, 9.20501172e+04, 9.41094453e+04,
          9.38417734e+04, 7.63584219e+04, 7.58211953e+04, 4.76909883e+04,
          5.73469023e+04, 5.30872148e+04, 6.18072734e+04, 9.90935391e+04 ]
      - [ 0., 0., 0., 0., 0., 0., 0., 0., 0., 0., 0., 0., 0., 0., 0., 0.,
          8.55844141e+03, 6.51534717e+03, 5.54593799e+03, 5.89416895e+03,
          7.39015332e+03, 2.94819629e+03, 5.61630737e+02, 1.91708786e+02,
          1.60319412e+02, 4.18318756e+02, 2.78921484e+03, 2.25427905e+03,
          5.89638086e+03, 1.40642529e+04, 5.35422803e+03, 9.99549121e+03,
          3.25751343e+03, 1.56508223e+04, 7.55448193e+03, 7.05009717e+03,
          5.23619580e+03, 4.45985889e+03, 5.62567432e+03, 9.24461816e+03,
          5.65010986e+03, 3.22723486e+03, 1.31309399e+03, 3.49895599e+02,
          7.69098938e+02, 5.79706177e+02, 1.34992651e+03, 1.57083801e+03,
          8.34720703e+04, 7.96882969e+04, 7.68786016e+04, 8.63411641e+04,
          9.84776953e+04, 8.37912813e+04, 9.21509609e+04, 1.01259906e+05,
          1.00502773e+05, 9.15393125e+04, 9.40999844e+04, 8.53588828e+04,
          9.71016563e+04, 8.76823125e+04, 1.07199125e+05, 9.38076250e+04 ]
      - [ 0., 0., 0., 0., 0., 0., 0., 0., 0., 0., 0., 0., 0., 0., 0., 0.,
          2.90427246e+02, 1.42426405e+01, 4.47213602e+00, 1.45858526e+01,
          2.05858536e+01, 2.30849915e+01, 5.51436577e+01, 3.16227770e+00,
          1.03245554e+01, 3.55294342e+01, 2.00173512e+01, 8.26129723e+00,
          2.68882446e+02, 1.44721355e+01, 9.92146530e+01, 8.93983789e+03,
          3.77044983e+01, 1.69705620e+01, 1.34164085e+01, 3.16227770e+00,
          1.27703295e+01, 4.47213602e+00, 2.87495098e+01, 2.12171509e+03,
          2.53099014e+02, 1.14307528e+01, 4.47213602e+00, 1.26491108e+01,
          8.26129723e+00, 1.20879097e+01, 1.69705620e+01, 1.14235744e+01,
          4.41791953e+04, 7.48051641e+04, 9.15204609e+04, 7.16242578e+04,
          7.72428047e+04, 9.03068359e+04, 5.69436992e+04, 5.40731289e+04,
          4.13308867e+04, 8.00505625e+04, 1.02353648e+05, 7.90817188e+04,
          6.54016563e+04, 7.30442031e+04, 7.00081641e+04, 5.34884609e+04 ]
      - [ 2.30439258e+03, 2.35453987e+01, 0., 0., 0., 0., 0., 0., 0., 0.,
          0., 0., 0., 0., 0., 0., 3.47083711e+04, 8.49941406e+03,
          6.57576172e+02, 8.04532837e+02, 4.25455780e+02, 3.23092316e+02,
          2.28654755e+02, 2.31376373e+02, 4.02158295e+02, 2.69778259e+02,
          5.38470154e+02, 2.05321941e+01, 1.28503394e+03, 3.24289600e+03,
          6.50990283e+03, 1.01714697e+04, 3.43817291e+02, 1.37456567e+03,
          3.33412061e+03, 5.36281445e+03, 3.27505469e+03, 2.56447266e+03,
          1.62795679e+03, 7.41914124e+02, 7.27408524e+01, 4.24264069e+01,
          2.78689308e+01, 3.55895271e+01, 6.74050522e+01, 4.30185089e+01,
          6.08111839e+01, 1.77481308e+01, 5.51415703e+04, 4.94153008e+04,
          4.45720820e+04, 4.04705586e+04, 2.51550371e+04, 3.36994023e+04,
          4.71557500e+04, 5.24571680e+04, 8.46680781e+04, 5.08006289e+04,
          4.43956758e+04, 3.78414453e+04, 3.24519160e+04, 3.66962930e+04,
          3.71045000e+04, 2.74141641e+04 ]
      - [ 2.29430762e+03, 7.24516535e+00, 0., 0., 16., 0., 0., 0., 0.,
          0., 0., 0., 0., 0., 0., 0., 4.38908789e+03, 1.31315145e+01, 0.,
          0., 216., 0., 0., 0., 0., 0., 0., 0., 0., 0., 0., 0.,
          1.50483118e+03, 2.38335107e+03, 7.13405469e+03, 5.72654150e+03,
          1.10675332e+04, 6.53747363e+03, 4.26536621e+03, 1.03608618e+03,
          1.99281540e+02, 6.86282959e+01, 1.77261520e+02, 1.11915619e+02,
          7.03701706e+01, 1.16832390e+01, 2.58253746e+01, 9.56469482e+02,
          5.33881484e+04, 3.74732070e+04, 4.61498398e+04, 3.29272031e+04,
          4.16821875e+04, 4.19786211e+04, 3.68144570e+04, 3.22729199e+04,
          5.38214297e+04, 4.58942813e+04, 4.14582500e+04, 4.17760273e+04,
          3.87819141e+04, 4.47168086e+04, 3.70438516e+04, 3.20316094e+04 ]
      - [ 2.25960400e+03, 1.04442005e+01, 0., 0., 22., 0., 0., 0., 0.,
          0., 0., 0., 0., 0., 0., 0., 4.99808984e+03, 1.17688086e+03,
          4.58542419e+02, 6.11416260e+02, 2.27258105e+03, 2.86212354e+03,
          1.01216846e+04, 1.63857813e+03, 1.09314380e+03, 7.81233292e+01,
          1.61553745e+01, 1.12724419e+02, 7.80512512e+02, 9.95336304e+02,
          5.21581177e+02, 3.16227770e+00, 6.83972397e+01, 3.41152229e+01,
          2.64222126e+01, 1.14235744e+01, 1.04664108e+02, 2.51623707e+01,
          5.63826561e+01, 1.65579014e+01, 1.94868336e+01, 3.92731781e+01,
          2.33775482e+01, 3.19025345e+01, 3.97330437e+01, 8.94427204e+00,
          3.86427574e+01, 1.85422192e+01, 3.84340664e+04, 2.66449316e+04,
          2.11545215e+04, 2.23014648e+04, 2.21825332e+04, 2.02981543e+04,
          2.35095293e+04, 2.74841895e+04, 3.32286016e+04, 2.76581016e+04,
          2.31574473e+04, 1.76179707e+04, 2.51863184e+04, 1.79052910e+04,
          1.98032734e+04, 2.26768750e+04 ]
      - [ 0., 0., 0., 0., 0., 0., 0., 0., 0., 0., 0., 0., 0., 0., 0., 0.,
          580., 0., 0., 0., 0., 0., 0., 0., 0., 0., 0., 0., 68., 0.,
          1.41421354e+00, 1.15586621e+03, 3.54837006e+02, 7.97018127e+02,
          5.26941748e+03, 6.29846436e+03, 5.84707373e+03, 4.10267236e+03,
          2.30681738e+03, 1.74820081e+03, 4.01779053e+02, 8.54709473e+01,
          1.61553745e+01, 9.81601257e+01, 1.10152084e+02, 1.03030872e+01,
          3.73142586e+01, 1.43331665e+03, 4.84047383e+04, 4.42368086e+04,
          3.30971563e+04, 1.71313203e+04, 2.73194902e+04, 3.04426367e+04,
          4.32725469e+04, 5.23151250e+04, 4.99704023e+04, 4.15074063e+04,
          3.42133945e+04, 3.07816895e+04, 3.24336035e+04, 3.43153164e+04,
          4.23339336e+04, 5.14080469e+04 ]
      - [ 2.31098608e+03, 2.62843647e+01, 0., 0., 0., 0., 0., 0., 0., 0.,
          0., 0., 0., 0., 0., 0., 7.32169482e+03, 8.89189682e+01, 0., 0.,
          232., 0., 0., 0., 0., 0., 0., 0., 0., 0., 0., 0.,
          1.02612972e+01, 4.24264050e+00, 4.47213602e+00, 3.16227770e+00,
          2.76569214e+01, 4.47213602e+00, 1.15432034e+01, 0.,
          1.10710678e+01, 4.24264050e+00, 5.83095169e+00, 0.,
          1.03245554e+01, 0., 5.65685415e+00, 1.14235744e+01,
          5.62242109e+04, 3.78964883e+04, 2.91284473e+04, 3.64268633e+04,
          3.47550273e+04, 3.65322734e+04, 3.97082500e+04, 4.50435586e+04,
          6.00734023e+04, 3.66857461e+04, 2.29835020e+04, 1.96464453e+04,
          3.06492832e+04, 2.35563125e+04, 3.49757773e+04, 4.40026758e+04 ]
      - [ 2.28813550e+03, 6.11300392e+01, 0., 0., 0., 0., 0., 0., 0., 0.,
          0., 0., 0., 0., 0., 0., 9.61810645e+03, 4.15480273e+03,
          3.13643335e+03, 1.34911340e+03, 5.19220093e+02, 1.54923492e+02,
          7.93098831e+01, 1.79866135e+02, 1.65962936e+02, 7.33388977e+01,
          2.29286896e+02, 1.68557410e+03, 8.32229797e+02, 2.93735913e+03,
          2.18196338e+03, 2.64282910e+03, 1.75603455e+03, 4.94883252e+03,
          6.15914160e+03, 1.08762676e+04, 7.36992676e+03, 4.93995264e+03,
          4.78919971e+03, 1.11407764e+03, 2.12331909e+03, 1.80726855e+03,
          1.31386902e+03, 3.12803418e+03, 2.05316504e+03, 2.24315356e+03,
          1.13021387e+03, 4.89131256e+02, 3.26649785e+04, 4.07664414e+04,
          4.17916289e+04, 3.75789766e+04, 3.42927617e+04, 4.48152344e+04,
          3.71844688e+04, 3.60066289e+04, 5.04883281e+04, 4.15295313e+04,
          3.95672188e+04, 5.41332891e+04, 5.03931992e+04, 4.28165625e+04,
          3.72422773e+04, 3.00554512e+04 ]
      - [ 2.29362402e+03, 5.64092560e+01, 0., 0., 0., 0., 0., 0., 0., 0.,
          0., 0., 0., 0., 0., 0., 1.37263262e+04, 2.25197803e+03,
          1.19001270e+03, 3.23339844e+01, 3.73867889e+02, 4.98614655e+01,
          6.34474525e+01, 3.10782738e+01, 6.12130547e+01, 5.83292961e+01,
          4.34647736e+02, 9.35732300e+02, 1.18843185e+02, 1.01817596e+03,
          1.02921863e+03, 1.98403528e+03, 5.76336523e+03, 7.25051953e+03,
          8.88442773e+03, 1.01020840e+04, 1.20780664e+04, 6.57646826e+03,
          5.40194580e+03, 6.08292188e+03, 3.32783325e+03, 3.64577222e+03,
          1.77411731e+03, 2.74745789e+02, 8.92792053e+02, 7.15178101e+02,
          3.62632007e+03, 1.44728967e+03, 4.97594453e+04, 6.64106094e+04,
          7.01150313e+04, 6.41552969e+04, 6.76015078e+04, 4.95621055e+04,
          4.07298477e+04, 3.71918281e+04, 5.80175625e+04, 6.33723906e+04,
          8.66355156e+04, 8.72017031e+04, 7.03863359e+04, 4.86893789e+04,
          4.53701914e+04, 3.49147695e+04 ]
      - [ 1.80732935e+03, 4.47213602e+00, 2.17153748e+02, 0.,
          3.93603172e+01, 0., 0., 0., 2., 1.41421356e+01, 0., 0.,
          5.16227770e+00, 4.47213602e+00, 5.83095169e+00, 9.82350586e+02,
          3.67111108e+03, 3.82505310e+02, 0., 0., 1.47720184e+02, 0.,
          7.30056286e+00, 3.16227770e+00, 5.16227770e+00, 2.82842708e+00,
          0., 8.26129723e+00, 1.34868336e+01, 0., 5.79758850e+02,
          8.04495056e+02, 7.29375439e+03, 7.61762451e+03, 5.13220410e+03,
          5.38166016e+03, 6.17445605e+03, 4.33806738e+03, 4.13919580e+03,
          5.92616504e+03, 6.82541748e+03, 2.72080420e+03, 2.99053320e+03,
          1.44263135e+03, 2.32157471e+03, 1.74961145e+03, 1.53774695e+03,
          2.35038135e+03, 5.24464805e+04, 5.12357734e+04, 3.90319023e+04,
          3.23550117e+04, 2.11070840e+04, 2.06830039e+04, 3.33976758e+04,
          4.50367500e+04, 5.78855313e+04, 5.61807070e+04, 4.33154180e+04,
          3.05977852e+04, 2.79565840e+04, 2.90204863e+04, 3.57994141e+04,
          4.30000586e+04 ]
      - [ 0., 0., 0., 0., 0., 0., 0., 0., 0., 0., 0., 0., 0., 0., 0., 0.,
          6.12913672e+03, 6.10863574e+03, 5.07108691e+03, 3.48588916e+03,
          1.92856848e+03, 1.18894287e+03, 2.05883667e+03, 1.78644751e+03,
          3.32698584e+03, 2.51026733e+03, 1.03422949e+03, 8.44483887e+02,
          3.03538745e+03, 3.88997534e+03, 1.01380693e+04, 1.42530654e+04,
          0., 0., 0., 0., 0., 0., 2.80983849e+01, 2.06887378e+03, 232.,
          0., 0., 0., 0., 0., 0., 0., 3.51784453e+04, 2.83119121e+04,
          2.40630430e+04, 2.59175449e+04, 2.50471875e+04, 3.37095313e+04,
          4.33697930e+04, 5.13594258e+04, 4.40906719e+04, 3.66830508e+04,
          2.92895020e+04, 2.79887871e+04, 2.60042500e+04, 2.72530703e+04,
          2.99156426e+04, 4.23772617e+04 ]
      - [ 0., 0., 0., 0., 0., 0., 0., 0., 0., 0., 0., 0., 0., 0., 0., 0.,
          8.35292188e+03, 1.79950647e+03, 9.10688599e+02, 1.14235744e+01,
          2.10990200e+01, 4.47213602e+00, 2.71841888e+01, 6.32455540e+00,
          1.85707664e+01, 4.24264050e+00, 8.94427204e+00, 9.48683357e+00,
          2.58466705e+02, 2.85999481e+02, 3.92357227e+03, 1.79595293e+04,
          3.70268018e+03, 1.84444971e+03, 3.16593921e+03, 3.40433838e+03,
          4.65046191e+03, 2.99939600e+03, 1.83833533e+03, 4.13744824e+03,
          5.19912451e+03, 3.63070874e+03, 4.31734473e+03, 4.12789307e+03,
          4.77677490e+03, 4.70235156e+03, 2.17785083e+03, 4.67078662e+03,
          4.82253164e+04, 3.25532246e+04, 3.41450977e+04, 2.87024238e+04,
          3.27817930e+04, 4.57067539e+04, 6.44442930e+04, 7.51315156e+04,
          4.86498164e+04, 4.00121289e+04, 3.01740742e+04, 3.47369961e+04,
          3.72203594e+04, 3.57870586e+04, 5.75125391e+04, 5.99772070e+04 ]
      - [ 0., 0., 0., 0., 0., 0., 0., 0., 0., 0., 0., 0., 0., 0., 0., 0.,
          396., 0., 0., 0., 0., 0., 0., 0., 0., 0., 0., 0., 20., 0.,
          1.41421354e+00, 9.95605011e+01, 0., 0., 0., 0., 4., 0., 0.,
          3.60556870e+01, 152., 0., 0., 0., 0., 0., 0., 0.,
          3.36163086e+04, 3.74126953e+04, 4.27626172e+04, 3.49111289e+04,
          3.08997148e+04, 3.69240469e+04, 4.06147227e+04, 3.74113594e+04,
          3.49690469e+04, 3.53164727e+04, 3.38176445e+04, 3.98404648e+04,
          3.98276484e+04, 3.38217070e+04, 3.46618906e+04, 3.74791719e+04 ]
      - [ 0., 0., 0., 0., 0., 0., 0., 0., 0., 0., 0., 0., 0., 0., 0., 0.,
          1.65850664e+04, 1.88738416e+03, 2.85655688e+03, 1.88048511e+03,
          4.88104346e+03, 2.94493555e+03, 8.00930176e+02, 3.30495880e+02,
          1.44279700e+03, 6.70959473e+02, 2.51575069e+01, 1.58113880e+01,
          2.81478729e+02, 1.55510773e+02, 3.87318091e+03, 1.56793237e+03,
          3.71062964e+03, 6.56864209e+03, 6.98538672e+03, 7.51518701e+03,
          6.52569385e+03, 5.86264404e+03, 5.64501563e+03, 1.29096436e+03,
          9.21591919e+02, 4.85076965e+02, 5.79974304e+02, 5.33090393e+02,
          6.47550232e+02, 2.47628281e+02, 1.66377686e+02, 5.88577423e+01,
          6.28930508e+04, 4.50916445e+04, 3.88390938e+04, 2.70751719e+04,
          2.53905449e+04, 2.12494121e+04, 3.22420313e+04, 3.80244492e+04,
          8.03387969e+04, 5.51680586e+04, 5.23920352e+04, 3.87607695e+04,
          2.53354512e+04, 2.34332734e+04, 2.81380469e+04, 4.76501758e+04 ]
      - [ 0., 0., 0., 0., 0., 0., 0., 0., 0., 0., 0., 0., 0., 0., 0., 0.,
          1.82305884e+03, 1.29184436e+03, 4.45263763e+02, 1.29192285e+03,
          2.20595337e+03, 1.98779614e+03, 5.05560791e+03, 5.38485059e+03,
          2.55856885e+03, 2.02352356e+03, 1.88743652e+03, 5.76403381e+02,
          2.69049146e+03, 7.76313477e+02, 3.77525122e+03, 1.87615254e+04,
          2.50677246e+03, 6.93864551e+03, 8.53152637e+03, 3.03561841e+03,
          6.91183154e+03, 1.07462549e+04, 3.35795239e+03, 3.39781226e+03,
          1.65710083e+03, 5.35081970e+02, 7.38542297e+02, 4.08273285e+02,
          2.66604523e+02, 3.63009613e+02, 2.00112915e+02, 5.98069946e+02,
          4.79706602e+04, 4.62200039e+04, 3.69901016e+04, 3.91494023e+04,
          3.09305195e+04, 3.20203223e+04, 3.95013594e+04, 6.04575234e+04,
          5.09353008e+04, 4.61061680e+04, 3.95958711e+04, 3.88699805e+04,
          3.60767070e+04, 4.26182344e+04, 4.49302617e+04, 4.98110625e+04 ]
      - [ 2.17723779e+03, 7.24516535e+00, 0., 0., 36., 0., 0., 0., 0.,
          0., 0., 0., 0., 0., 0., 0., 3.97863428e+03, 5.57320175e+01,
          1.65600452e+01, 5.09901953e+00, 2.33704498e+02, 0.,
          5.10857849e+01, 1.14235744e+01, 3.96569214e+01, 4.60620193e+01,
          1.61553745e+01, 8.26129723e+00, 3.48471489e+01, 1.62180996e+01,
          3.36972504e+01, 2.40726852e+01, 2., 1.41421354e+00, 0., 0., 8.,
          0., 2.82842708e+00, 0., 0., 1.41421354e+00, 0., 0., 2., 0., 0.,
          0., 4.84812930e+04, 4.37232109e+04, 3.81472422e+04,
          3.16884883e+04, 3.64442422e+04, 3.04051016e+04, 3.47991445e+04,
          4.15500195e+04, 4.67189492e+04, 4.22356250e+04, 3.79839805e+04,
          3.45015078e+04, 3.34283008e+04, 2.80779277e+04, 3.68412266e+04,
          4.50322422e+04 ]
      - [ 2.31324292e+03, 2.90240021e+01, 0., 0., 0., 0., 0., 0., 0., 0.,
          0., 0., 0., 0., 0., 0., 7.54294434e+03, 1.53701492e+02, 0.,
          5.09901953e+00, 2.58973663e+02, 1.47752237e+01, 8.48528099e+00,
          0., 1.43245554e+01, 1.13137083e+01, 8.94427204e+00,
          1.14084892e+01, 9.09902000e+00, 8.60232544e+00, 4.47548561e+01,
          3.16227770e+00, 1.02612972e+01, 2.42157269e+01, 4.47213602e+00,
          1.58113880e+01, 2.33044128e+01, 4.47213602e+00, 3.41706200e+01,
          1.21700878e+01, 1.30990200e+01, 2.82842712e+01, 8.94427204e+00,
          1.33956242e+01, 1.11622772e+01, 2.20187340e+01, 3.42893219e+01,
          9.48683357e+00, 6.03524648e+04, 4.63791680e+04, 4.32501289e+04,
          3.40345234e+04, 3.48688828e+04, 3.36386484e+04, 3.21549180e+04,
          4.08730469e+04, 5.89637578e+04, 5.30502891e+04, 4.52257656e+04,
          3.42650781e+04, 3.52657734e+04, 3.05894941e+04, 3.05946016e+04,
          3.72608711e+04 ]
      - [ 2.54388599e+03, 1.62474106e+02, 1.03030872e+01, 1.96479645e+01,
          0., 1.72783852e+01, 1.41421354e+00, 1.21700878e+01,
          1.67703285e+01, 2.05177937e+01, 4.47213602e+00, 0.,
          9.16227722e+00, 0., 2.88437672e+01, 4.29195007e+02,
          2.86388125e+04, 8.14316992e+03, 3.39377661e+03, 6.60451538e+02,
          3.30981781e+02, 9.75254669e+01, 7.17473602e+01, 2.60768494e+02,
          3.73822662e+02, 3.42786194e+02, 8.92736389e+02, 2.67454102e+02,
          4.59447754e+02, 5.33602478e+02, 1.00048740e+04, 9.22707715e+03,
          4.16499512e+03, 8.56177832e+03, 1.60977625e+03, 1.07848401e+03,
          4.93799561e+02, 8.32052307e+02, 4.94822949e+03, 4.50624902e+03,
          6.18241553e+03, 1.52130200e+03, 2.08247510e+03, 1.10277393e+03,
          7.66132019e+02, 1.09949451e+03, 8.01804810e+02, 3.12445288e+03,
          5.78943477e+04, 4.53724219e+04, 3.79188320e+04, 4.48640313e+04,
          3.14609590e+04, 3.31520625e+04, 4.50931523e+04, 4.99221523e+04,
          8.21431484e+04, 5.32862891e+04, 4.89208516e+04, 4.25428359e+04,
          3.72484883e+04, 3.69365938e+04, 3.62620234e+04, 4.00241367e+04 ]
      - [ 0., 0., 0., 0., 0., 0., 0., 0., 0., 0., 0., 0., 0., 0., 0., 0.,
          8.18456494e+03, 6.48823438e+03, 3.70743774e+03, 3.95309155e+03,
          4.20669385e+03, 8.00272095e+02, 3.43781250e+02, 3.21081024e+02,
          1.07193591e+03, 9.53713745e+02, 1.50348962e+03, 2.85728857e+03,
          3.57847827e+03, 2.96673364e+03, 7.37883887e+03, 2.42160918e+04,
          2.27800049e+03, 2.92041235e+03, 6.21913623e+03, 6.31292090e+03,
          1.82057227e+04, 1.05100049e+04, 6.73873291e+02, 2.38019116e+03,
          4.66389771e+02, 2.11006210e+02, 2.22564255e+02, 2.75336700e+02,
          8.12976379e+02, 9.57397888e+02, 5.87001282e+02, 3.85811890e+02,
          2.53440879e+04, 3.36799219e+04, 3.76663008e+04, 5.11508594e+04,
          4.12223320e+04, 4.32285898e+04, 4.03792109e+04, 5.01356602e+04,
          3.51490664e+04, 3.76916250e+04, 4.01616289e+04, 4.93939531e+04,
          5.18258047e+04, 4.69528125e+04, 3.13699336e+04, 3.24168496e+04 ]
      - [ 2.29919580e+03, 3.85474472e+01, 0., 0., 0., 0., 0., 0., 0., 0.,
          0., 0., 0., 0., 0., 0., 7.22702441e+03, 1.42989456e+02, 0., 0.,
          232., 0., 0., 0., 0., 0., 0., 0., 0., 0., 0., 0.,
          8.05376660e+03, 5.40938037e+03, 6.46522266e+03, 9.77267532e+01,
          4.98581909e+02, 4.80863818e+03, 3.40210034e+03, 6.29063672e+03,
          3.45559326e+03, 1.02111200e+03, 1.29129834e+03, 8.48277588e+02,
          2.68054413e+02, 5.26239258e+02, 1.56045212e+02, 1.64795074e+02,
          6.71691953e+04, 2.98135957e+04, 1.78557070e+04, 1.57231309e+04,
          1.38567559e+04, 2.12611777e+04, 3.22116934e+04, 4.00269492e+04,
          5.54179102e+04, 3.88463047e+04, 2.61367754e+04, 2.23157559e+04,
          2.27038301e+04, 1.91036406e+04, 2.71676484e+04, 3.64856406e+04 ]
      - [ 0., 0., 0., 0., 0., 0., 0., 0., 0., 0., 0., 0., 0., 0., 0., 0.,
          2., 7.07106829e+00, 0., 0., 8.32455540e+00, 0., 5.88634968e+00,
          3.16227770e+00, 9.16227722e+00, 4.24264050e+00, 0.,
          6.32455540e+00, 232., 0., 1.09464624e+03, 5.60981152e+03,
          3.83245544e+01, 2.40139938e+02, 5.84480371e+03, 7.59213086e+03,
          5.19123145e+03, 4.07088623e+03, 5.86108582e+02, 2.01679858e+03,
          2.58585846e+02, 4.07683144e+01, 4.36307068e+01, 6.32455540e+00,
          4.01264534e+01, 5.98273201e+01, 2.16721935e+01, 6.32455540e+00,
          2.23033340e+04, 4.14901523e+04, 4.93422070e+04, 4.45099023e+04,
          4.69449453e+04, 5.56349883e+04, 3.91928633e+04, 4.27047617e+04,
          3.17234238e+04, 3.66751289e+04, 4.21740156e+04, 5.64718672e+04,
          6.54883828e+04, 4.98556250e+04, 4.13708945e+04, 3.94694141e+04 ]
      - [ 2.19550439e+03, 5.88634968e+00, 0., 0., 34., 0., 0., 0., 0.,
          0., 0., 0., 0., 0., 0., 0., 3.99472412e+03, 1.76893654e+01, 0.,
          0., 198., 0., 0., 0., 0., 0., 0., 0., 0., 0., 0., 0.,
          1.26682849e+03, 1.53243604e+03, 7.02623926e+03, 1.06693076e+04,
          8.01082275e+03, 4.16538525e+03, 2.81208105e+03, 7.14701721e+02,
          1.41583594e+03, 8.48989319e+02, 3.04508521e+03, 1.68121887e+03,
          1.19318091e+03, 1.52896875e+03, 1.57963037e+03, 6.84329651e+02,
          5.64859531e+04, 3.96548086e+04, 1.79680762e+04, 1.02202480e+04,
          1.17574443e+04, 1.89051133e+04, 3.48930156e+04, 3.99511484e+04,
          6.10527422e+04, 3.84248984e+04, 1.55251650e+04, 1.51854922e+04,
          1.62212822e+04, 1.58186504e+04, 2.95311309e+04, 4.20692031e+04 ]
      - [ 0., 0., 0., 0., 0., 0., 0., 0., 0., 0., 0., 0., 0., 0., 0., 0.,
          212., 1.41421354e+00, 0., 0., 2., 0., 9.89949417e+00, 0.,
          9.16227722e+00, 4.24264050e+00, 0., 3.16227770e+00, 234., 0.,
          4.46691254e+02, 9.76965137e+03, 4.90546021e+02, 1.01333221e+03,
          2.55522998e+03, 4.36696777e+03, 4.49188623e+03, 2.83578467e+03,
          1.38764514e+03, 2.36833228e+03, 3.24088318e+02, 6.38137093e+01,
          5.37188072e+01, 4.69400558e+01, 5.92349625e+01, 1.34467258e+01,
          3.71731453e+01, 2.88368134e+02, 2.99297832e+04, 4.19410781e+04,
          4.33190352e+04, 5.34191172e+04, 6.29490938e+04, 4.64233125e+04,
          4.30152266e+04, 4.17958008e+04, 3.93337109e+04, 4.04198633e+04,
          4.64867695e+04, 5.94299727e+04, 5.34720664e+04, 6.35801016e+04,
          4.36237539e+04, 3.51782813e+04 ]
      - [ 0., 0., 0., 0., 0., 0., 0., 0., 0., 0., 0., 0., 0., 0., 0., 0.,
          4.62368469e+02, 6.64953430e+02, 2.48168121e+02, 1.33956242e+01,
          2.62612972e+01, 0., 1.41421356e+01, 8.26129723e+00,
          2.45858536e+01, 2.29756107e+01, 3.47363663e+01, 3.16227770e+00,
          2.61423584e+02, 4.23203430e+01, 3.70205414e+02, 1.04443232e+04,
          3.83245544e+01, 6.75972473e+02, 1.11915295e+03, 3.41566772e+03,
          3.79526904e+03, 2.40914526e+03, 3.66712799e+02, 2.07385693e+03,
          2.70910400e+02, 9.89949512e+00, 1.30744610e+01, 6.32455540e+00,
          2.43245544e+01, 7.61577320e+00, 1.55563488e+01, 3.16227770e+00,
          4.43428672e+04, 4.20287422e+04, 3.88240508e+04, 2.63623184e+04,
          2.89011328e+04, 3.09149609e+04, 4.14775195e+04, 6.70483125e+04,
          4.96659727e+04, 3.70955039e+04, 3.01955000e+04, 2.66959648e+04,
          3.01606934e+04, 2.78828066e+04, 4.07844453e+04, 6.19054492e+04 ]
      - [ 0., 0., 0., 0., 0., 0., 0., 0., 0., 0., 0., 0., 0., 0., 0., 0.,
          496., 0., 0., 0., 0., 0., 0., 0., 0., 0., 0., 0., 24., 0.,
          1.41421354e+00, 1.43606018e+02, 10., 7.07106781e+00, 0.,
          2.28471489e+01, 18., 7.21110249e+00, 1.15432034e+01,
          5.42435646e+01, 1.87486832e+02, 1.73666973e+01, 4.47213602e+00,
          3.16227770e+00, 2.66491108e+01, 4.47213602e+00, 2.59148350e+01,
          8.26129723e+00, 3.04078730e+04, 2.60180859e+04, 1.37970293e+04,
          1.28629004e+04, 1.36990371e+04, 1.08529170e+04, 2.07266621e+04,
          2.47070449e+04, 3.27273887e+04, 2.39452344e+04, 1.50575830e+04,
          1.05143916e+04, 1.14199580e+04, 1.70384824e+04, 1.93648164e+04,
          2.38736523e+04 ]
      - [ 0., 0., 0., 0., 0., 0., 0., 0., 0., 0., 0., 0., 0., 0., 0., 0.,
          20., 0., 0., 0., 0., 0., 0., 0., 0., 0., 0., 0., 4., 0.,
          1.41421354e+00, 3.16227770e+00, 0., 0., 0., 0., 4., 0.,
          1.41421354e+00, 3.16227770e+00, 32., 0., 0., 0., 0., 0., 0.,
          0., 2.50715117e+04, 1.77016582e+04, 1.32733516e+04,
          1.39762295e+04, 1.25268936e+04, 1.46665352e+04, 1.80758770e+04,
          2.24709492e+04, 3.08353965e+04, 1.82415605e+04, 1.20088936e+04,
          1.40458486e+04, 1.06090381e+04, 1.30484375e+04, 2.27038145e+04,
          2.53678164e+04 ]
      - [ 0., 0., 0., 0., 0., 0., 0., 0., 0., 0., 0., 0., 0., 0., 0., 0.,
          232., 0., 0., 0., 0., 0., 0., 0., 0., 0., 0., 0., 232., 0.,
          4.98084259e+01, 7.51021338e+03, 1.82612972e+01, 2.99279804e+01,
          1.34164085e+01, 3.30082817e+01, 3.36697845e+01, 8.60232544e+00,
          5.14893799e+01, 2.08123413e+03, 2.55486832e+02, 1.29020195e+01,
          1.03030872e+01, 6.32455540e+00, 1.23245554e+01, 1.03030872e+01,
          2.02025833e+01, 0., 3.51796719e+04, 3.02497598e+04,
          2.19970156e+04, 1.68522637e+04, 1.63019229e+04, 2.24561816e+04,
          3.42365117e+04, 5.33820820e+04, 2.97506230e+04, 2.16770156e+04,
          2.33848105e+04, 1.47533652e+04, 2.23582285e+04, 2.58619590e+04,
          2.82114688e+04, 3.77769844e+04 ]
      - [ 2.06222705e+03, 0., 0., 0., 42., 0., 0., 0., 0., 0., 0., 0.,
          0., 0., 0., 0., 3.71945044e+03, 1.17726994e+01, 0., 0., 182.,
          0., 0., 0., 0., 0., 0., 0., 0., 0., 0., 0., 0., 0., 0., 0., 0.,
          0., 0., 0., 0., 0., 0., 0., 0., 0., 0., 0., 3.02821250e+04,
          2.37297598e+04, 1.83219902e+04, 1.57498301e+04, 1.22188623e+04,
          1.30850859e+04, 3.25213730e+04, 2.16489355e+04, 3.30856445e+04,
          2.73560938e+04, 1.84555332e+04, 1.31730713e+04, 1.65727988e+04,
          1.41064248e+04, 2.59164688e+04, 2.60684258e+04 ]
      - [ 1.11339160e+03, 1.41421354e+00, 0., 0., 24., 0., 0., 0., 0.,
          0., 0., 0., 0., 0., 0., 0., 2.03796472e+03, 2.40416298e+01, 0.,
          1.45858526e+01, 1.27621613e+02, 0., 3.55294342e+01,
          1.45858526e+01, 1.62612972e+01, 2.59148350e+01, 4.47213602e+00,
          1.26491108e+01, 2.82612972e+01, 1.16832390e+01, 2.63184280e+01,
          1.77481308e+01, 2.46491108e+01, 2.44452229e+01, 3.31328827e+02,
          9.55362549e+02, 1.28457397e+03, 1.69937454e+02, 3.40581703e+01,
          2.02571621e+01, 2.82333450e+01, 2.70995522e+01, 5.83095169e+00,
          4.13064880e+01, 1.83245544e+01, 1.44332771e+01, 2.45006218e+01,
          3.86585388e+01, 4.75229844e+04, 4.32487734e+04, 3.50476055e+04,
          2.84443418e+04, 4.16924023e+04, 4.24737031e+04, 4.61869844e+04,
          4.48063711e+04, 6.27995313e+04, 3.95237070e+04, 3.30942148e+04,
          3.10479766e+04, 3.57845703e+04, 5.00464531e+04, 4.81707383e+04,
          4.65734492e+04 ]
      - [ 4.77042145e+02, 1.13137083e+01, 0., 0., 16., 0.,
          4.24264050e+00, 0., 6., 0., 0., 1.84442501e+01, 1.93956223e+01,
          7.21110249e+00, 1.41421354e+00, 1.14070175e+02, 2.11560430e+04,
          8.65057520e+03, 3.82426025e+03, 5.99236279e+03, 2.85661548e+03,
          1.17022729e+03, 1.09539136e+03, 1.04559705e+03, 1.49778113e+03,
          3.60640967e+03, 3.19542310e+03, 1.50166150e+03, 3.44308276e+03,
          5.77124072e+03, 8.89925488e+03, 1.22679404e+04, 0., 0., 0., 0.,
          0., 0., 0., 0., 0., 0., 0., 0., 0., 0., 0., 0., 1.62193604e+04,
          2.31575723e+04, 2.74242559e+04, 2.47620234e+04, 2.77896855e+04,
          3.29037188e+04, 3.02733066e+04, 2.67655078e+04, 2.78876719e+04,
          3.27300938e+04, 3.21951172e+04, 3.05100254e+04, 2.78839648e+04,
          2.41082363e+04, 1.97081367e+04, 1.31699971e+04 ]
      - [ 3.46059082e+02, 0., 0., 0., 8., 0., 0., 0., 0., 0., 0., 0., 0.,
          0., 0., 0., 6.32661743e+02, 1.41421354e+00, 0., 0., 30., 0.,
          0., 0., 0., 0., 0., 0., 0., 0., 0., 0., 0., 0., 0., 0., 0., 0.,
          0., 0., 0., 0., 0., 0., 0., 0., 0., 0., 2.42411504e+04,
          2.23603086e+04, 2.45191582e+04, 2.13157422e+04, 2.10521719e+04,
          3.03141699e+04, 2.93637832e+04, 2.26771602e+04, 2.82260430e+04,
          2.36878516e+04, 2.13777813e+04, 24671., 2.17717930e+04,
          2.63125801e+04, 3.02615957e+04, 2.74228320e+04 ]
      - [ 0., 0., 0., 0., 0., 0., 0., 0., 0., 0., 0., 0., 0., 0., 0., 0.,
          232., 0., 0., 0., 0., 0., 0., 0., 0., 0., 0., 0., 232., 0.,
          2.49345303e+01, 6.54448047e+03, 2.25858536e+01, 4.85928268e+01,
          2.10273170e+01, 3.77480698e+01, 3.25321922e+01, 3.37019730e+01,
          3.69436493e+01, 2.09037769e+03, 2.82757935e+02, 4.40581703e+01,
          1.44222050e+01, 3.26367798e+01, 2.76289692e+01, 0.,
          3.69990463e+01, 3.81901855e+01, 1.98070625e+04, 2.00613086e+04,
          2.85970371e+04, 3.46478594e+04, 5.15085742e+04, 2.60761348e+04,
          2.86456465e+04, 2.77632363e+04, 1.37511543e+04, 2.38989980e+04,
          2.90228848e+04, 3.75691289e+04, 4.05987305e+04, 3.55772422e+04,
          2.54171484e+04, 20949. ]
      - [ 2.29870337e+03, 3.85474472e+01, 0., 0., 0., 0., 0., 0., 0., 0.,
          0., 0., 0., 0., 0., 0., 7.22452002e+03, 1.11035828e+02, 0., 0.,
          2.40261292e+02, 5.83095169e+00, 2.82842708e+00, 0.,
          1.30990200e+01, 2.82842708e+00, 0., 0., 6., 8.94427204e+00,
          1.29574175e+01, 3.16227770e+00, 1.10990200e+01, 2.54558430e+01,
          1.34164085e+01, 5.15904083e+01, 6.94451523e+01, 8.60232544e+00,
          2.40416298e+01, 0., 6., 2.68700581e+01, 1.61340389e+01,
          9.48683357e+00, 3.06491108e+01, 1.03030872e+01, 2.03436947e+01,
          3.16227770e+00, 3.00505313e+04, 2.72982832e+04, 1.70831426e+04,
          1.43788203e+04, 2.37640996e+04, 1.49279678e+04, 2.39385840e+04,
          1.75646172e+04, 3.80795469e+04, 2.20121641e+04, 1.88180820e+04,
          2.07905508e+04, 1.75033105e+04, 1.87662715e+04, 2.35255898e+04,
          1.28657803e+04 ]
      - [ 0., 0., 0., 0., 0., 0., 0., 0., 0., 0., 0., 0., 0., 0., 0., 0.,
          600., 0., 0., 0., 0., 0., 0., 0., 0., 0., 0., 0., 68., 0.,
          1.41421354e+00, 1.15586621e+03, 0., 0., 0., 0., 14., 0., 0.,
          4.41055786e+02, 198., 0., 0., 0., 0., 0., 0., 0.,
          2.25086660e+04, 2.66607715e+04, 1.70366621e+04, 1.38846689e+04,
          1.92862520e+04, 2.17314375e+04, 3.16757207e+04, 1.90238164e+04,
          2.45567461e+04, 1.71234160e+04, 2.01387871e+04, 1.86167188e+04,
          2.61923398e+04, 1.81348672e+04, 2.03570430e+04, 2.43052969e+04 ]
      - [ 0., 0., 0., 0., 0., 0., 0., 0., 0., 0., 0., 0., 0., 0., 0., 0.,
          3.06868262e+04, 7.85071729e+03, 4.42114355e+03, 3.51432098e+02,
          4.05074982e+02, 6.37024345e+01, 2.44854492e+02, 2.39680710e+02,
          2.43236542e+02, 2.17471298e+02, 4.72314339e+01, 2.38149121e+03,
          6.90277527e+02, 8.33972266e+03, 4.33407861e+03, 8.90558105e+03,
          2.21097534e+03, 2.68790283e+02, 0., 1.77481308e+01,
          2.16569214e+01, 3.67918663e+01, 1.59599419e+01, 6.32455540e+00,
          1.90710678e+01, 2.96984844e+01, 0., 1.01980391e+01,
          2.97330437e+01, 5.83095169e+00, 3.11126976e+01, 6.32455540e+00,
          6.69308750e+04, 6.07682656e+04, 4.60613047e+04, 3.81083789e+04,
          3.06313516e+04, 2.82136484e+04, 3.34938516e+04, 5.03198906e+04,
          9.17801328e+04, 6.66839922e+04, 5.71621719e+04, 3.95123750e+04,
          2.13421152e+04, 2.20570723e+04, 3.40047695e+04, 3.77894805e+04 ]
      - [ 0., 0., 0., 0., 0., 0., 0., 0., 0., 0., 0., 0., 0., 0., 0., 0.,
          6.24312549e+03, 7.73040039e+02, 4.47213602e+00, 2.04313850e+01,
          2.96044739e+02, 0., 2.12132034e+01, 3.16227770e+00,
          2.11622772e+01, 2.56853390e+01, 7.61577320e+00, 2.67912464e+01,
          4.71286659e+01, 0., 2.68700581e+01, 1.14235744e+01,
          1.03775664e+04, 2.92381812e+03, 9.74235840e+03, 7.45461768e+03,
          5.83516211e+03, 3.36492407e+03, 2.58332349e+03, 2.80864941e+03,
          5.97044678e+03, 6.88436084e+03, 4.55256836e+03, 7.93625977e+03,
          5.46073926e+03, 3.38342383e+03, 1.24431982e+03, 3.38436182e+03,
          9.22943594e+04, 7.26315781e+04, 5.41746797e+04, 4.09194727e+04,
          3.55041875e+04, 3.35251133e+04, 3.89027578e+04, 5.63776641e+04,
          8.51757344e+04, 7.88233594e+04, 6.25797031e+04, 4.47648398e+04,
          3.62264805e+04, 3.70380430e+04, 3.93363828e+04, 5.43728984e+04 ]
      - [ 0., 0., 0., 0., 0., 0., 0., 0., 0., 0., 0., 0., 0., 0., 0., 0.,
          232., 0., 0., 0., 0., 0., 0., 0., 0., 0., 0., 0., 232., 0.,
          2.35757141e+01, 6.24822070e+03, 3.22612991e+01, 6.21630745e+01,
          1.75141907e+01, 3.42909470e+01, 8.93138428e+01, 2.50996475e+01,
          7.34523773e+01, 2.08761304e+03, 2.89128082e+02, 3.55848351e+01,
          5.83095169e+00, 5.09901953e+00, 6.05393791e+01, 2.93157501e+01,
          4.11862907e+01, 2.16569214e+01, 4.32282578e+04, 5.08925898e+04,
          4.26981094e+04, 4.25802305e+04, 3.56256641e+04, 4.43635469e+04,
          4.28211875e+04, 5.56342852e+04, 4.51758945e+04, 5.30010664e+04,
          3.99034844e+04, 4.15951836e+04, 4.40678945e+04, 3.82384961e+04,
          4.07156250e+04, 5.74138086e+04 ]
      - [ 2.10710678e+01, 9.02998638e+00, 4.47213602e+00, 3.16227770e+00,
          2., 0., 1.44721355e+01, 7.07106781e+00, 16., 0.,
          5.83095169e+00, 3.16227770e+00, 0., 10., 0., 8.26129723e+00,
          1.08442500e+04, 1.51646523e+04, 5.72351807e+03, 4.41783105e+03,
          7.37341846e+03, 6.48935852e+02, 3.96316772e+02, 4.12245300e+02,
          8.18446411e+02, 7.43757690e+02, 7.08041016e+02, 1.40945520e+03,
          7.11787695e+03, 8.25305859e+03, 1.35760479e+04, 2.48680938e+04,
          5.37498779e+02, 2.55891602e+03, 1.08658135e+04, 1.15715127e+04,
          1.48180654e+04, 8.38280762e+03, 2.16855640e+03, 2.46192578e+03,
          4.64366364e+02, 6.88623535e+02, 3.39604004e+02, 2.60136963e+02,
          6.34063293e+02, 2.94469391e+02, 8.61714783e+01, 7.41779099e+01,
          2.53153203e+04, 2.92455605e+04, 3.24774883e+04, 4.37535234e+04,
          3.80519688e+04, 4.08699141e+04, 4.41670195e+04, 4.05167344e+04,
          4.33477578e+04, 4.80536367e+04, 5.12682773e+04, 5.27322070e+04,
          5.10331680e+04, 4.08650625e+04, 3.11427148e+04, 2.78254355e+04 ]
      - [ 7.66620941e+01, 5.34951721e+02, 2.76116852e+02, 3.16227770e+00,
          6.14868317e+01, 1.79188614e+01, 5.83095169e+00, 5.79309753e+02,
          3.35916943e+03, 1.49581104e+03, 2.48126709e+03, 4.81945343e+02,
          1.25232458e+03, 3.05073242e+02, 2.14426975e+01, 6.10075134e+02,
          3.10801904e+03, 6.46027637e+03, 2.84245410e+03, 1.15655725e+03,
          5.86300293e+02, 3.99003220e+01, 4.43271942e+01, 2.40726852e+01,
          4.92349625e+01, 4.85422516e+01, 6.92497559e+01, 2.98678246e+01,
          5.97255798e+02, 3.13702832e+03, 6.97777881e+03, 5.96229053e+03,
          9.65500259e+01, 8.33118973e+01, 6.08079956e+02, 4.23362488e+02,
          5.76216125e+01, 1.05230212e+03, 4.82933411e+02, 3.93832321e+01,
          6.74895813e+02, 8.63573059e+02, 3.78642311e+01, 5.20470581e+02,
          6.88275818e+02, 5.65995300e+02, 8.84344788e+01, 2.97439957e+01,
          2.88027207e+04, 33021., 3.11475293e+04, 5.78049141e+04,
          6.08115391e+04, 3.93441133e+04, 4.02692461e+04, 3.28128281e+04,
          3.32420273e+04, 4.34846992e+04, 4.38738086e+04, 5.35753672e+04,
          4.62783555e+04, 4.76450938e+04, 3.03206445e+04, 3.53844688e+04 ]
      - [ 0., 0., 0., 0., 0., 0., 0., 0., 0., 0., 0., 0., 0., 0., 0., 0.,
          5.56600830e+03, 8.67472290e+02, 0., 0., 232., 0., 0., 0., 0.,
          0., 0., 0., 0., 0., 0., 0., 2.25260596e+03, 2.73468811e+02,
          1.46100378e+03, 4.25642139e+03, 5.35060693e+03, 8.45877075e+02,
          3.27564049e+01, 2.04638748e+01, 1.62612972e+01, 1.59599419e+01,
          1.44721355e+01, 1.58113880e+01, 1.62612972e+01, 1.34164085e+01,
          2.00284843e+01, 1.26491108e+01, 3.43124609e+04, 3.67064258e+04,
          4.98440430e+04, 3.84751484e+04, 2.27043789e+04, 1.36093779e+04,
          1.37836807e+04, 1.81024668e+04, 5.37659063e+04, 3.78244688e+04,
          3.68704102e+04, 3.91044570e+04, 3.23257090e+04, 2.20789570e+04,
          1.66249063e+04, 1.99380273e+04 ]
      - [ 0., 0., 0., 0., 0., 0., 0., 0., 0., 0., 0., 0., 0., 0., 0., 0.,
          2.10333984e+02, 7.16589737e+01, 6.43989258e+01, 3.61705589e+01,
          3.33956223e+01, 1.34467249e+01, 5.26400337e+01, 2.79769135e+01,
          8.00686569e+01, 7.93796005e+01, 3.33451424e+01, 3.62752609e+01,
          2.87720123e+02, 0., 5.62653625e+02, 9.73029004e+03,
          4.80555420e+03, 2.19237793e+03, 3.33159375e+03, 4.05641138e+03,
          3.74453369e+03, 1.93557166e+03, 2.34407544e+03, 5.87177637e+03,
          7.36263037e+03, 2.70813745e+03, 3.34842627e+03, 2.47857739e+03,
          5.46630811e+03, 4.95630322e+03, 2.90598926e+03, 3.37790137e+03,
          5.86879961e+04, 3.43585938e+04, 2.67133027e+04, 3.34505938e+04,
          4.47158438e+04, 4.47139648e+04, 4.96472383e+04, 6.21215664e+04,
          5.24511953e+04, 4.65654961e+04, 4.39090625e+04, 3.94176016e+04,
          3.98002227e+04, 4.01847813e+04, 4.45006719e+04, 7.53338359e+04 ]
      - [ 0., 0., 0., 0., 0., 0., 0., 0., 0., 0., 0., 0., 0., 0., 0., 0.,
          9.44604248e+02, 2.22977600e+02, 0., 3.26034424e+02,
          1.35955765e+02, 9.13093185e+01, 2.17747360e+02, 8.57049561e+01,
          5.21801941e+02, 1.93730316e+02, 6.61605148e+01, 2.92070122e+01,
          4.41732086e+02, 2.61656036e+02, 2.13247910e+02, 5.19971533e+03,
          0., 0., 0., 0., 30., 0., 5.88634968e+00, 1.99190552e+03, 232.,
          0., 0., 0., 0., 0., 0., 0., 1.52518555e+04, 2.12685547e+04,
          2.33863105e+04, 3.18837090e+04, 2.52815957e+04, 1.81147930e+04,
          2.13737285e+04, 1.91963594e+04, 1.80542930e+04, 2.10315156e+04,
          2.35282676e+04, 2.58457344e+04, 2.92682793e+04, 2.13479258e+04,
          1.78062441e+04, 1.81445332e+04 ]
      - [ 0., 0., 0., 0., 0., 0., 0., 0., 0., 0., 0., 0., 0., 0., 0., 0.,
          3.46198029e+02, 2.96984844e+01, 1.88943405e+01, 2.68567486e+01,
          2.65225945e+01, 1.65600452e+01, 3.42893219e+01, 9.48683357e+00,
          10., 5.49722290e+01, 3.94578476e+01, 1.26491108e+01,
          1.07486832e+02, 1.61340389e+01, 2.40416298e+01, 1.86114270e+03,
          5.59596863e+02, 1.49420984e+03, 6.23189844e+03, 1.00284316e+04,
          6.33476123e+03, 4.77719824e+03, 4.46615051e+02, 2.41529370e+03,
          7.30822449e+02, 4.03539063e+02, 8.16168518e+01, 2.16603989e+02,
          7.25371323e+01, 1.16832390e+01, 7.16025009e+01, 2.56725067e+02,
          4.70007813e+04, 4.09947539e+04, 4.64030313e+04, 4.32947813e+04,
          3.36541367e+04, 2.72984570e+04, 3.04257813e+04, 3.03865508e+04,
          3.28823750e+04, 3.85410352e+04, 3.91687109e+04, 4.64453516e+04,
          4.73179922e+04, 4.02104766e+04, 4.31861680e+04, 4.73089883e+04 ]
      - [ 0., 0., 0., 0., 0., 0., 0., 0., 0., 0., 0., 0., 0., 0., 0., 0.,
          4.07775317e+03, 3.42720972e+03, 1.52826038e+03, 3.97986035e+03,
          1.73996448e+03, 9.19885620e+02, 3.46785614e+02, 3.10897942e+01,
          2.08045258e+02, 1.98214600e+02, 2.24426498e+01, 3.60360870e+02,
          1.77301758e+03, 1.73504810e+03, 7.58789453e+03, 1.91924648e+04,
          1.09063416e+03, 1.90829822e+03, 5.03354541e+03, 4.42562305e+03,
          2.91502026e+03, 3.88403271e+03, 3.46113989e+03, 3.05238135e+03,
          3.86460846e+02, 1.09524345e+02, 4.83321838e+01, 1.35265533e+02,
          9.85220947e+01, 7.71057053e+01, 6.23957253e+01, 1.62073517e+02,
          3.41251797e+04, 3.92791680e+04, 3.00320801e+04, 3.35114844e+04,
          4.34178008e+04, 4.87710781e+04, 6.40714141e+04, 5.79821328e+04,
          4.50694609e+04, 4.27177070e+04, 3.53732148e+04, 3.99560234e+04,
          4.48722109e+04, 5.91429648e+04, 4.74093359e+04, 5.10527695e+04 ]
      - [ 9.86040894e+02, 0., 0., 0., 16., 0., 0., 0., 0., 0., 0., 0.,
          0., 0., 0., 0., 1.81800745e+03, 4.01020775e+01, 2.95504475e+01,
          2.08953209e+01, 1.46023392e+02, 1.20879097e+01, 5.21150093e+01,
          2.28471489e+01, 2.29104080e+01, 3.43447189e+01, 1.03030872e+01,
          2.86926823e+01, 6.81923828e+01, 2.50996475e+01, 2.99896259e+01,
          1.26491108e+01, 5.25234570e+03, 1.03191040e+03, 1.33070459e+03,
          9.20276672e+02, 6.80125928e+03, 5.20863477e+03, 1.83101306e+03,
          7.82603088e+02, 1.00644867e+03, 5.24325073e+02, 1.93219345e+02,
          6.66067566e+02, 9.26741562e+01, 1.10228809e+03, 2.22429031e+02,
          1.20566322e+02, 4.19140039e+04, 3.47683945e+04, 1.63437598e+04,
          1.74821680e+04, 1.40787178e+04, 2.13735762e+04, 3.72327891e+04,
          3.57178047e+04, 4.75923633e+04, 2.70299492e+04, 2.40257578e+04,
          1.59682773e+04, 2.29848691e+04, 3.13063047e+04, 3.29090117e+04,
          3.35636797e+04 ]
      - [ 2.31309326e+03, 2.05683270e+01, 0., 0., 0., 0., 0., 0., 0., 0.,
          0., 0., 0., 0., 0., 0., 6.96148389e+03, 8.87055511e+01, 0., 0.,
          232., 0., 0., 0., 0., 0., 0., 0., 0., 0., 0., 0.,
          2.26491108e+01, 4.55349007e+01, 1.03030872e+01, 3.23339844e+01,
          2.76697865e+01, 1.58134279e+01, 3.16563263e+01, 1.65579014e+01,
          2.31622772e+01, 4.16958542e+01, 1.47752237e+01, 2.95963058e+01,
          3.85225945e+01, 0., 3.53553391e+01, 2.48191986e+01,
          5.65412109e+04, 5.37222500e+04, 4.21766602e+04, 3.95950703e+04,
          4.72878789e+04, 4.56416992e+04, 4.38671055e+04, 4.60017031e+04,
          6.17801484e+04, 4.93204453e+04, 4.11075430e+04, 3.27188867e+04,
          4.09644883e+04, 4.61066680e+04, 4.11316406e+04, 3.80806680e+04 ]
      - [ 0., 0., 0., 0., 0., 0., 0., 0., 0., 0., 0., 0., 0., 0., 0., 0.,
          1.32826416e+03, 1.08158606e+03, 2.00887878e+02, 1.02333450e+01,
          3.77481308e+01, 0., 9.89949512e+00, 3.16227770e+00,
          1.22612972e+01, 8.48528099e+00, 7.21110249e+00, 2.09104080e+01,
          2.55486832e+02, 5.01170471e+02, 1.41855688e+03, 1.09217373e+04,
          4.13079248e+03, 2.20188354e+03, 1.80062463e+03, 4.66769165e+02,
          1.76508643e+03, 3.82791797e+03, 3.39376025e+03, 1.14521807e+04,
          5.29491064e+03, 4.19012939e+03, 3.23351245e+03, 8.90721973e+03,
          4.24915771e+03, 9.17732422e+03, 3.75171484e+03, 1.00921348e+04,
          4.73182070e+04, 4.80879141e+04, 2.93443867e+04, 2.61210547e+04,
          3.56081172e+04, 4.86419063e+04, 5.91203984e+04, 5.42825039e+04,
          4.36298164e+04, 4.93993984e+04, 2.90817051e+04, 3.37257305e+04,
          5.27894141e+04, 3.74868828e+04, 5.52397461e+04, 6.51753320e+04 ]
      - [ 2.31717236e+03, 1.03584852e+01, 0., 0., 0., 0., 0., 0., 0., 0.,
          0., 0., 0., 0., 0., 0., 6.88782520e+03, 1.57332779e+02,
          1.16832390e+01, 3.16227770e+00, 2.80431396e+02, 4.47213602e+00,
          1.55563488e+01, 1.65225945e+01, 3.62612991e+01, 2.40416298e+01,
          0., 1.84593353e+01, 28., 1.22064659e+02, 2.56853390e+01,
          2.45606812e+02, 1.22794289e+02, 2.89939893e+03, 7.86472998e+03,
          1.48023120e+03, 1.44843689e+03, 1.61656592e+03, 5.03499756e+03,
          1.86238232e+03, 9.92982254e+01, 1.34685791e+02, 1.89054127e+01,
          4.78052521e+01, 1.05263489e+02, 3.76225433e+01, 1.46836029e+02,
          4.83977737e+01, 9.31489531e+04, 5.15287344e+04, 4.83415508e+04,
          2.67729902e+04, 3.21620918e+04, 2.85435391e+04, 5.09744453e+04,
          4.66728320e+04, 7.73476875e+04, 5.70572031e+04, 6.37742461e+04,
          3.43230547e+04, 3.16707910e+04, 2.33641113e+04, 5.12501016e+04,
          4.08003203e+04 ]
      - [ 0., 0., 0., 0., 0., 0., 0., 0., 0., 0., 0., 0., 0., 0., 0., 0.,
          2.45423569e+02, 1.69705620e+01, 7.61577368e+00, 9.48683357e+00,
          2.81980400e+01, 5.83095169e+00, 1.27279215e+01, 6.32455540e+00,
          7.16227770e+00, 2.13873005e+01, 7.61577368e+00, 1.85422192e+01,
          2.54570770e+02, 1.30744610e+01, 2.72242706e+02, 9.65010645e+03,
          1.42537427e+03, 7.53625000e+02, 9.36556519e+02, 5.11630005e+02,
          1.25494617e+03, 1.43678796e+03, 4.09960156e+03, 2.94007886e+03,
          2.63395630e+02, 2.75031452e+01, 1.89054127e+01, 5.09901953e+00,
          6.05858536e+01, 1.65551815e+01, 2.92076489e+03, 3.12547760e+02,
          6.48222188e+04, 5.18491367e+04, 3.26261172e+04, 2.89149414e+04,
          3.75564141e+04, 6.16773242e+04, 46453., 7.91216250e+04,
          5.64357500e+04, 4.65382773e+04, 2.65420371e+04, 3.07971758e+04,
          5.97730898e+04, 6.21716563e+04, 3.66286914e+04, 6.06327188e+04 ]
      - [ 2.30397559e+03, 3.39218788e+01, 0., 6.32455540e+00,
          1.31622772e+01, 0., 1.41421354e+00, 0., 0., 0., 0., 0.,
          1.31622772e+01, 7.21110249e+00, 0., 0., 2.92828770e+04,
          8.64744727e+03, 6.43096484e+03, 6.43424927e+02, 1.60262610e+03,
          4.68821869e+02, 8.44603577e+02, 3.83440704e+02, 4.74591614e+02,
          1.41942123e+02, 1.53993912e+02, 8.88836212e+01, 2.66404858e+03,
          3.66032593e+03, 1.51847754e+04, 1.01334648e+04, 1.10512129e+04,
          1.22395928e+04, 1.58895166e+03, 1.09987648e+02, 1.13744003e+02,
          3.27154198e+01, 1.18998181e+03, 7.73051074e+03, 2.00417363e+04,
          6.34319458e+02, 8.76660690e+01, 5.34614868e+01, 1.09229240e+02,
          9.19826965e+01, 1.31322180e+03, 5.58933838e+03, 9.53292266e+04,
          4.25952383e+04, 2.44391152e+04, 2.51941230e+04, 1.91618867e+04,
          2.79258340e+04, 5.60023047e+04, 7.02905234e+04, 1.06767961e+05,
          4.54382031e+04, 4.48023086e+04, 3.08065332e+04, 2.26495664e+04,
          2.78559492e+04, 4.93938828e+04, 4.25703789e+04 ]
      - [ 2.28133545e+03, 3.07084293e+01, 0., 8.26129723e+00, 20.,
          8.94427204e+00, 1.31869125e+01, 3.16227770e+00, 8.,
          4.24264050e+00, 0., 1.33603172e+01, 1.77224960e+01,
          4.47213602e+00, 1.41421354e+00, 0., 1.66666758e+04,
          1.13138391e+03, 6.38841614e+02, 5.69287537e+02, 1.42069812e+03,
          1.27627222e+03, 4.48573291e+03, 1.50198789e+04, 2.87379473e+04,
          3.70009229e+03, 1.70661182e+03, 1.41741174e+03, 1.37910242e+03,
          4.55297333e+02, 6.19739624e+02, 3.45967603e+03, 8.56369043e+03,
          1.92230139e+03, 1.68201196e+03, 5.31460266e+01, 4.22484161e+02,
          2.43866406e+03, 4.87415234e+03, 5.79941797e+03, 3.58603076e+03,
          8.49492493e+02, 1.33183945e+02, 2.76142944e+02, 3.13483505e+01,
          1.71942490e+02, 4.65188538e+02, 4.40745605e+03, 8.66997344e+04,
          6.25641094e+04, 2.49263125e+04, 1.28080459e+04, 1.33311113e+04,
          2.21424512e+04, 3.46828594e+04, 4.64577422e+04, 1.09207250e+05,
          5.09632578e+04, 2.78063008e+04, 2.05748906e+04, 1.92998203e+04,
          2.31593691e+04, 4.00884805e+04, 5.06683594e+04 ]
      - [ 9.18514648e+03, 1.64878540e+03, 8.17668945e+02, 1.66063892e+03,
          0., 0., 0., 0., 0., 0., 0., 0., 3.16227770e+00, 0., 0., 0.,
          1.61441816e+04, 8.62782410e+02, 4.47213602e+00, 1.53172798e+01,
          232., 5.83095169e+00, 1.47752237e+01, 6.32455540e+00, 4.,
          5.65685415e+00, 5.83095169e+00, 1.78419141e+03, 2.52190063e+03,
          1.41671606e+03, 1.24911084e+03, 4.04977631e+02, 1.40471405e+02,
          8.03712616e+01, 2.47752228e+01, 2.24510098e+01, 2.67867715e+04,
          2.59893774e+03, 1.31944421e+03, 1.87799695e+03, 1.91458936e+03,
          8.12940674e+01, 1.03030872e+01, 1.26491108e+01, 3.04689350e+01,
          2.03030872e+01, 6.14415359e+01, 7.07106781e+00, 3.67794258e+04,
          2.78299863e+04, 3.60302031e+04, 1.16472256e+04, 1.83404961e+04,
          2.08312637e+04, 1.65350664e+04, 2.18674531e+04, 6.76781563e+04,
          3.17679043e+04, 2.49024688e+04, 2.86961270e+04, 3.27070527e+04,
          1.97785195e+04, 1.91571270e+04, 2.55489590e+04 ]
      - [ 2.23115771e+03, 5.88634968e+00, 0., 0., 28., 0., 0., 0., 0.,
          0., 0., 0., 0., 0., 0., 0., 4.47703320e+03, 1.86972946e+02,
          4.47213602e+00, 1.45858526e+01, 2.32198044e+02, 1.72327042e+01,
          4.24264050e+00, 5.09901953e+00, 8., 1.55563488e+01,
          4.47213602e+00, 1.02333460e+01, 12., 1.25310287e+02,
          3.76321373e+01, 1.92753357e+02, 1.54868336e+01, 1.85588741e+01,
          3.02974030e+02, 4.53483154e+02, 1.23361182e+03, 1.39351685e+02,
          1.55563488e+01, 0., 2.42612972e+01, 5.65685415e+00,
          1.88693562e+01, 1.45858526e+01, 1.82612972e+01, 1.34467258e+01,
          2.13873005e+01, 3.16227770e+00, 7.95572578e+04, 4.05304805e+04,
          3.79647578e+04, 4.42397266e+04, 6.85764219e+04, 2.51020781e+04,
          4.80500859e+04, 4.45202227e+04, 4.75837266e+04, 4.35881914e+04,
          6.23151758e+04, 5.54252578e+04, 4.59083984e+04, 3.01809648e+04,
          3.88198164e+04, 3.04913223e+04 ]
      - [ 0., 0., 0., 0., 0., 0., 0., 0., 0., 0., 0., 0., 0., 0., 0., 0.,
          206., 0., 0., 0., 0., 0., 0., 0., 0., 0., 0., 0., 206., 0.,
          1.17726994e+01, 4.97985547e+03, 7.27559433e+01, 3.30023407e+02,
          5.43389307e+03, 8.26071289e+03, 1.03543574e+04, 4.67928906e+03,
          3.12564911e+02, 1.74522412e+03, 3.00009430e+02, 2.54558449e+01,
          2.61165161e+01, 4.56787262e+01, 5.60190277e+01, 1.16832390e+01,
          6.20219612e+01, 9.48683357e+00, 2.06279746e+04, 3.97465195e+04,
          1.81063027e+04, 1.17586924e+04, 1.06952773e+04, 2.13719609e+04,
          1.74483105e+04, 2.53269004e+04, 3.29465313e+04, 2.62910117e+04,
          2.24365938e+04, 2.48776836e+04, 1.96307500e+04, 1.70299961e+04,
          3.32061016e+04, 2.86839434e+04 ]
      - [ 0., 0., 0., 0., 0., 0., 0., 0., 0., 0., 0., 0., 0., 0., 0., 0.,
          9.14306213e+02, 4.84051392e+02, 1.50115918e+03, 5.04813818e+03,
          1.20068096e+04, 4.83474707e+03, 2.24029443e+03, 1.67704944e+03,
          3.27611230e+03, 4.49289111e+03, 2.23574316e+03, 1.86638977e+03,
          5.94883789e+03, 6.30029346e+03, 7.05269873e+03, 2.34520352e+04,
          1.96721838e+03, 1.67511572e+03, 9.25989807e+02, 9.47519775e+02,
          3.95193286e+03, 3.42608740e+03, 2.44334351e+03, 3.03970239e+03,
          3.22009430e+02, 8.86926117e+01, 4.22680779e+01, 8.78532181e+01,
          4.47838898e+01, 2.87421761e+01, 5.60802155e+01, 2.01024512e+03,
          2.76387461e+04, 3.91612109e+04, 5.08291094e+04, 7.75200234e+04,
          1.00355539e+05, 1.11717602e+05, 6.03395000e+04, 7.09920078e+04,
          3.33896641e+04, 2.76629082e+04, 4.93111484e+04, 8.89791250e+04,
          1.15217297e+05, 1.07142180e+05, 6.28345977e+04, 3.34778242e+04 ]
      - [ 8.71248926e+03, 1.59361465e+02, 0., 5.83095169e+01, 0.,
          7.44311752e+01, 1.78454614e+03, 2.01907593e+03, 4.75161133e+02,
          0., 0., 6.31506119e+01, 4.56451233e+02, 5.98186462e+02,
          1.06887085e+03, 2.52136353e+03, 4.52917305e+04, 9.50158594e+03,
          1.21531152e+03, 2.73832251e+03, 2.51172510e+03, 6.65438232e+02,
          4.58517639e+02, 1.23334702e+02, 6.16662216e+01, 1.02313477e+03,
          5.40556152e+03, 6.36467712e+02, 5.02369629e+03, 4.68731250e+03,
          1.06974209e+04, 1.27472891e+04, 9.72562402e+03, 5.17509424e+03,
          7.78845410e+03, 5.35303516e+03, 8.03782275e+03, 4.95101221e+03,
          1.01048877e+04, 5.21406836e+03, 9.48783203e+03, 4.85142871e+03,
          3.22543970e+03, 4.60292188e+03, 5.55845947e+03, 3.29881104e+03,
          1.88399390e+03, 2.98902173e+03, 5.11138672e+04, 4.78970820e+04,
          2.40189922e+04, 2.87382871e+04, 3.68261094e+04, 4.89102031e+04,
          6.82653047e+04, 4.79542773e+04, 9.39593672e+04, 3.94683672e+04,
          2.53363848e+04, 2.87113574e+04, 4.42113789e+04, 4.37852578e+04,
          4.20973711e+04, 5.69646602e+04 ]
      - [ 0., 0., 0., 0., 0., 0., 0., 0., 0., 0., 0., 0., 0., 0., 0., 0.,
          232., 8.71477699e+00, 0., 0., 3.16227770e+00, 0.,
          2.82842708e+00, 5.09901953e+00, 9.09902000e+00, 1.41421354e+00,
          0., 0., 2.37162277e+02, 0., 1.27476440e+02, 8.86069043e+03, 0.,
          0., 0., 0., 0., 0., 2.73145924e+01, 2.07305835e+03, 232., 0.,
          0., 0., 0., 0., 0., 0., 4.99221797e+04, 4.59801445e+04,
          3.41992656e+04, 3.53566992e+04, 2.94664375e+04, 2.40888184e+04,
          3.10466445e+04, 5.46874961e+04, 2.79507891e+04, 6.33375469e+04,
          3.48050547e+04, 3.53690078e+04, 2.73660879e+04, 2.56501387e+04,
          2.57324160e+04, 4.73435234e+04 ]
      - [ 0., 0., 0., 0., 0., 0., 0., 0., 0., 0., 0., 0., 0., 0., 0., 0.,
          1.53384692e+03, 7.24676147e+02, 1.13136072e+03, 2.48667736e+01,
          1.43245554e+01, 7.61577320e+00, 2.84583683e+01, 8.26129723e+00,
          1.03245554e+01, 4.75241737e+01, 4.47213602e+00, 3.16227770e+00,
          3.22176628e+01, 7.18779968e+02, 1.40570862e+03, 5.85731018e+02,
          0., 0., 0., 0., 4., 0., 0., 2.80717010e+01, 104., 0., 0., 0.,
          0., 0., 0., 0., 6.00760273e+04, 7.10103203e+04, 3.95335156e+04,
          2.41716641e+04, 2.95682051e+04, 3.73846758e+04, 5.38173320e+04,
          5.64464531e+04, 7.13847656e+04, 5.61571797e+04, 4.35196328e+04,
          3.13189238e+04, 3.53461172e+04, 2.83852129e+04, 4.92186211e+04,
          6.29952773e+04 ]
      - [ 2.31496729e+03, 7.24516535e+00, 0., 0., 4., 0., 0., 0., 0., 0.,
          0., 0., 0., 0., 0., 0., 8.60037207e+03, 3.08881744e+02,
          1.56326630e+02, 2.47688065e+01, 2.61684875e+02, 1.92473602e+01,
          5.41096458e+01, 9.48683357e+00, 3.74868317e+01, 2.84583683e+01,
          8.94427204e+00, 3.46686707e+01, 7.82359543e+01, 3.33173645e+02,
          8.08506897e+02, 2.60094261e+01, 5.71717072e+01, 4.04605637e+01,
          2.64584618e+01, 2.52982216e+01, 3.75657120e+01, 3.99051895e+01,
          4.00569687e+01, 2.92296658e+01, 3.41164284e+01, 4.72680702e+01,
          4.47213602e+00, 1.58113880e+01, 3.06491108e+01, 2.10321808e+01,
          2.86538010e+01, 1.53323650e+01, 9.10557891e+04, 5.23617578e+04,
          2.06067656e+04, 3.89424883e+04, 3.26806074e+04, 3.57016523e+04,
          4.44976016e+04, 6.29011250e+04, 7.04090938e+04, 4.35501758e+04,
          6.65525078e+04, 1.85116133e+04, 2.40610801e+04, 3.29961211e+04,
          5.69793477e+04, 3.95496875e+04 ]
      - [ 2.28431079e+03, 6.57882767e+01, 0., 0., 0., 0., 0., 0., 0., 0.,
          0., 0., 0., 0., 0., 0., 9.77043457e+03, 5.32450012e+02,
          6.26301636e+02, 1.44377039e+03, 3.04658478e+02, 2.75465965e+01,
          6.05950203e+01, 2.60094280e+01, 2.74868336e+01, 6.12701721e+01,
          1.65600452e+01, 2.72349625e+01, 8.13770370e+01, 1.48842053e+03,
          1.54870947e+03, 1.60556458e+03, 3.10766235e+03, 1.09355264e+04,
          8.66091992e+03, 1.16522207e+04, 9.37436523e+03, 1.45107412e+04,
          5.25904736e+03, 4.11982227e+03, 3.87768213e+03, 1.45035571e+03,
          1.79875171e+03, 4.26397705e+02, 9.13848755e+02, 2.88593530e+03,
          2.68839404e+03, 1.77938989e+03, 4.64524023e+04, 5.42852031e+04,
          4.89252422e+04, 3.25437305e+04, 3.04447402e+04, 3.14810527e+04,
          5.21625195e+04, 4.58255430e+04, 6.41812266e+04, 6.04077773e+04,
          5.18153281e+04, 4.71018633e+04, 4.48851953e+04, 4.88529844e+04,
          4.46349570e+04, 5.06252227e+04 ]
      - [ 2.33954443e+03, 1.89838009e+01, 5.83095169e+00, 5.09901953e+00,
          3.12982216e+01, 5.83095169e+00, 1.30744610e+01, 0.,
          1.94868336e+01, 0., 0., 0., 2.78113880e+01, 1.47677670e+01,
          2.82842708e+00, 0., 7.16003613e+03, 9.97631073e+01, 0., 0.,
          232., 0., 0., 0., 0., 0., 0., 0., 0., 0., 0., 0.,
          1.59311699e+04, 7.35385742e+03, 9.10040234e+03, 8.82211133e+03,
          9.26624023e+03, 1.44946152e+04, 7.79278467e+03, 4.12746521e+02,
          8.59169434e+03, 2.65270190e+03, 1.80123132e+03, 2.44576294e+03,
          2.61890088e+03, 2.03678784e+03, 6.79242285e+03, 4.41831836e+03,
          5.37036992e+04, 4.58566641e+04, 3.75949023e+04, 2.60668555e+04,
          2.49002988e+04, 4.34345820e+04, 5.03929688e+04, 3.24871504e+04,
          7.36825625e+04, 4.54118633e+04, 4.22638672e+04, 3.69907305e+04,
          6.31160586e+04, 3.05195742e+04, 4.84742500e+04, 6.20203789e+04 ]
      - [ 0., 0., 0., 0., 0., 0., 0., 0., 0., 0., 0., 0., 0., 0., 0., 0.,
          1.92596289e+03, 1.23002563e+03, 2.54937256e+03, 8.63434668e+03,
          1.18844922e+04, 4.95157861e+03, 3.65793823e+03, 3.57377368e+03,
          2.81974097e+03, 7.82459424e+03, 2.12929834e+03, 2.48047974e+03,
          1.10852383e+04, 1.00034961e+04, 2.15001611e+03, 6.56588867e+03,
          4.96739014e+03, 4.65804138e+02, 7.33106995e+02, 5.20498474e+02,
          1.01600482e+03, 2.55328125e+03, 4.37463574e+03, 8.28213672e+03,
          1.22620811e+04, 4.15574219e+03, 1.22248999e+03, 2.82320459e+03,
          5.22163281e+03, 1.25977930e+04, 1.11162412e+04, 6.46282520e+03,
          1.78109199e+04, 4.03954883e+04, 6.50359102e+04, 8.16307188e+04,
          7.20590703e+04, 7.79740859e+04, 3.53961563e+04, 3.92305313e+04,
          4.13637148e+04, 3.96518906e+04, 6.44320859e+04, 9.47589609e+04,
          1.12060781e+05, 5.58692695e+04, 3.87779023e+04, 3.25409434e+04 ]
      - [ 0., 0., 0., 0., 0., 0., 0., 0., 0., 0., 0., 0., 0., 0., 0., 0.,
          2.41486832e+02, 1.69705620e+01, 0., 5.09901953e+00,
          7.16227770e+00, 0., 1.97989902e+01, 0., 1.83245544e+01,
          2.26274166e+01, 0., 5.09901953e+00, 240., 4.47213602e+00,
          6.27497787e+01, 8.32638574e+03, 0., 0., 0., 0., 0., 0., 0.,
          2.09552637e+03, 232., 0., 0., 0., 0., 0., 0., 0.,
          4.67716523e+04, 5.10829961e+04, 3.36164492e+04, 3.21070508e+04,
          2.95200703e+04, 4.85115781e+04, 3.57689883e+04, 2.53791621e+04,
          3.51108125e+04, 6.66930703e+04, 3.57874648e+04, 3.50604648e+04,
          3.68016992e+04, 2.61295234e+04, 3.81982695e+04, 3.30795938e+04 ]
      - [ 0., 0., 0., 0., 0., 0., 0., 0., 0., 0., 0., 0., 0., 0., 0., 0.,
          1.54942371e+03, 2.11107373e+03, 1.66118457e+03, 4.15270850e+03,
          6.71718201e+02, 0., 1.41421354e+00, 0., 6., 1.29574175e+01,
          4.47213602e+00, 0., 7.49783142e+02, 4.71012061e+03,
          5.13110742e+03, 1.19712891e+04, 4.03477051e+03, 2.95934912e+03,
          3.61435645e+03, 3.50996704e+03, 3.11704614e+03, 9.45173340e+03,
          8.79310059e+03, 4.06421655e+03, 1.18041223e+03, 5.55238571e+01,
          1.17921410e+02, 5.46719360e+01, 7.83972397e+01, 1.29130692e+02,
          2.76867139e+03, 4.80015234e+03, 5.37012070e+04, 3.69301563e+04,
          1.45539180e+04, 2.98911895e+04, 3.38704531e+04, 6.35357969e+04,
          8.91315547e+04, 8.62893984e+04, 6.69774219e+04, 2.34574629e+04,
          2.23974297e+04, 3.26324023e+04, 4.09483203e+04, 5.97970469e+04,
          1.00592633e+05, 7.78158906e+04 ]
      - [ 1.13870129e+03, 1.41421354e+00, 0., 0., 26., 0., 0., 0., 0.,
          0., 0., 0., 0., 0., 0., 0., 2.07434668e+03, 2.29739571e+01,
          2.68582687e+01, 9.48683357e+00, 108., 7.61577368e+00,
          2.26274166e+01, 8.26129723e+00, 2.74235744e+01, 3.83578644e+01,
          5.83095169e+00, 6.32455540e+00, 2.57481308e+01, 5.83095169e+00,
          7.07106781e+00, 1.26491108e+01, 5.16227770e+00, 2.03436947e+01,
          0., 1.01980391e+01, 4., 0., 1.17726994e+01, 0., 3.24162979e+01,
          4.24264050e+00, 0., 9.48683357e+00, 6.32455540e+00,
          4.47213602e+00, 2.82842708e+00, 1.96546993e+01, 6.91714766e+04,
          5.50481445e+04, 4.71537461e+04, 3.36273047e+04, 3.16672832e+04,
          2.75946367e+04, 4.03635039e+04, 5.73705273e+04, 6.87546797e+04,
          6.06971406e+04, 3.51949375e+04, 3.13070703e+04, 3.52246133e+04,
          2.83920098e+04, 4.72399609e+04, 5.16049102e+04 ]
      - [ 0., 0., 0., 0., 0., 0., 0., 0., 0., 0., 0., 0., 0., 0., 0., 0.,
          3.79162292e+02, 1.99390240e+01, 5.83095169e+00, 0.,
          5.16227770e+00, 0., 7.07106781e+00, 0., 3.16227770e+00,
          1.60153389e+01, 0., 8.26129723e+00, 20., 7.21110249e+00,
          7.07106781e+00, 1.02722778e+02, 8.08557959e+03, 4.09531421e+03,
          5.32221826e+03, 6.17626660e+03, 5.04129590e+03, 7.86660217e+02,
          2.28045874e+03, 3.23110352e+03, 6.08189941e+03, 4.92417627e+03,
          3.27111847e+02, 3.68150635e+01, 7.52443924e+01, 7.21110249e+00,
          5.81568527e+01, 3.30804977e+01, 4.45422070e+04, 5.17483086e+04,
          3.78048750e+04, 3.70645508e+04, 3.07205996e+04, 1.72319492e+04,
          3.34850547e+04, 4.19945703e+04, 5.62240977e+04, 6.36234766e+04,
          3.88484219e+04, 3.48921328e+04, 2.72583887e+04, 2.88315605e+04,
          3.83176016e+04, 5.36390313e+04 ]
      - [ 0., 0., 0., 0., 0., 0., 0., 0., 0., 0., 0., 0., 0., 0., 0., 0.,
          2.23250244e+03, 7.47317871e+03, 2.46833789e+03, 2.08953209e+01,
          9.32198181e+01, 1.92473602e+01, 2.56963844e+01, 0.,
          1.31622772e+01, 1.27279215e+01, 1.34164085e+01, 2.68035164e+01,
          7.76768005e+02, 3.64433960e+03, 5.00808398e+03, 6.29164697e+03,
          1.07296699e+04, 1.08237002e+04, 7.95624756e+03, 6.77051660e+03,
          5.14848193e+03, 4.34460693e+03, 6.46891162e+03, 1.42897051e+04,
          9.28586719e+03, 2.53992188e+03, 1.24783984e+03, 1.37971350e+03,
          7.77030615e+03, 4.69157324e+03, 2.40990576e+03, 3.72822998e+03,
          3.48791719e+04, 2.15373613e+04, 1.33924043e+04, 1.40556123e+04,
          1.23682412e+04, 1.59529287e+04, 2.84520938e+04, 2.95010156e+04,
          5.28242109e+04, 3.79306523e+04, 2.88181504e+04, 2.92095996e+04,
          2.96428047e+04, 2.81233867e+04, 3.51769180e+04, 3.59043320e+04 ]
      - [ 2.28113501e+03, 6.09725456e+01, 0., 0., 0., 0., 0., 0., 0., 0.,
          0., 0., 0., 0., 0., 0., 8.62722168e+03, 9.62811646e+02,
          4.89913422e+02, 1.02333460e+01, 2.62324554e+02, 7.21110249e+00,
          2.17579098e+01, 3.54811745e+01, 3.89736671e+01, 1.69705620e+01,
          1.75067329e+01, 2.55657120e+01, 4.59182167e+01, 5.14441467e+02,
          6.55440796e+02, 2.75148743e+02, 2., 1.29020195e+01, 0.,
          2.05321941e+01, 0., 7.21110249e+00, 9.89949512e+00,
          3.16227770e+00, 1.02612972e+01, 1.03584852e+01, 0., 0., 2., 0.,
          1.55563488e+01, 6.32455540e+00, 5.86017930e+04, 5.61275625e+04,
          5.37094219e+04, 6.26341289e+04, 6.40208008e+04, 5.22162813e+04,
          5.53743984e+04, 5.40392344e+04, 6.08509023e+04, 4.84850703e+04,
          7.00248047e+04, 6.12163086e+04, 6.09064063e+04, 5.20045547e+04,
          5.29726172e+04, 5.15459375e+04 ]
      - [ 5.32038513e+02, 0., 0., 0., 8., 0., 0., 0., 0., 0., 0., 0., 0.,
          0., 0., 0., 9.63779236e+02, 1.41421354e+00, 0., 0., 48., 0.,
          0., 0., 0., 0., 0., 0., 0., 0., 0., 0., 0., 0., 0., 0., 0., 0.,
          0., 0., 0., 0., 0., 0., 0., 0., 0., 0., 3.22016504e+04,
          2.56953672e+04, 2.12969473e+04, 2.26154375e+04, 2.91160508e+04,
          2.19060742e+04, 2.89059707e+04, 3.65304102e+04, 3.38662266e+04,
          2.27567129e+04, 2.54832285e+04, 2.25362793e+04, 1.32754727e+04,
          2.94707559e+04, 4.13432578e+04, 2.38150195e+04 ]
      - [ 2.31026758e+03, 3.22263374e+01, 0., 0., 0., 0., 0., 0., 0., 0.,
          0., 0., 0., 0., 0., 0., 7.55276660e+03, 1.53806931e+02, 0.,
          5.09901953e+00, 234., 0., 1.41421354e+00, 0., 0.,
          1.41421354e+00, 0., 0., 5.16227770e+00, 5.83095169e+00,
          1.41421354e+00, 0., 1.17323987e+03, 3.37723169e+03,
          4.45358838e+03, 1.14159443e+04, 1.19930273e+04, 7.54953271e+03,
          2.40183521e+03, 1.41039093e+02, 1.03865662e+02, 2.86308098e+01,
          2.64296703e+01, 7.70658188e+01, 7.78840714e+01, 2.68631325e+01,
          4.48394508e+01, 5.82147598e+01, 3.26152227e+04, 2.70710195e+04,
          5.31100117e+04, 5.19791523e+04, 4.28228320e+04, 2.63195449e+04,
          3.18700254e+04, 2.69693730e+04, 5.48381563e+04, 4.17378086e+04,
          7.47892266e+04, 3.31515234e+04, 5.34318281e+04, 2.83956172e+04,
          5.33870586e+04, 4.28480352e+04 ]
      - [ 2.27327979e+03, 5.88634968e+00, 0., 0., 20., 0., 0., 0., 0.,
          0., 0., 0., 0., 0., 0., 0., 4.27363281e+03, 1.44903307e+01, 0.,
          0., 212., 0., 0., 0., 0., 0., 0., 0., 0., 0., 0., 0.,
          2.82333450e+01, 4.61728134e+01, 0., 3.70015564e+01,
          2.98113880e+01, 1.20879097e+01, 4.21345901e+01, 1.73699150e+01,
          1.70990200e+01, 4.05159607e+01, 2.33775482e+01, 6.32455540e+00,
          3.79876060e+01, 2.50996475e+01, 3.45401497e+01, 6.32455540e+00,
          3.83712148e+04, 2.17368301e+04, 1.61275293e+04, 2.03073320e+04,
          2.27951758e+04, 3.51338008e+04, 4.02798242e+04, 2.98160938e+04,
          5.02279414e+04, 2.44563613e+04, 2.37366426e+04, 1.52335908e+04,
          1.61446377e+04, 3.16315703e+04, 5.46155195e+04, 3.11779023e+04 ]
      - [ 6.75262256e+03, 9.22706482e+02, 0., 4.05215988e+01,
          3.50545288e+02, 3.05633759e+02, 9.82156738e+02, 9.84077454e+02,
          0., 0., 1.49003357e+02, 9.27905518e+02, 2.46255554e+02,
          2.98429230e+02, 0., 9.56960449e+02, 2.75194609e+04,
          2.53665430e+03, 1.40354873e+04, 5.06767334e+03, 3.63532617e+03,
          2.65834766e+03, 2.58060889e+03, 8.16998242e+03, 1.15634619e+04,
          1.06914482e+04, 3.61327563e+03, 8.66011353e+02, 9.73222839e+02,
          1.61506372e+03, 2.12196533e+03, 1.08762109e+04, 1.64334590e+04,
          2.53563794e+03, 8.59459180e+03, 8.89031543e+03, 1.27647979e+04,
          2.58902124e+03, 1.08976453e+03, 5.10683496e+03, 1.87492422e+04,
          4.94875000e+03, 2.41871094e+03, 1.06306006e+03, 2.46804077e+03,
          1.05850525e+03, 1.25944250e+03, 2.26423730e+03, 4.93127109e+04,
          4.51742344e+04, 3.91014648e+04, 5.19019883e+04, 6.12169023e+04,
          4.06589609e+04, 2.79070605e+04, 4.40151641e+04, 7.11053594e+04,
          5.94950938e+04, 5.01202031e+04, 4.72928789e+04, 4.95705469e+04,
          4.17565938e+04, 4.27427617e+04, 3.44486563e+04 ]
      - [ 0., 0., 0., 0., 0., 0., 0., 0., 0., 0., 0., 0., 0., 0., 0., 0.,
          108., 0., 0., 0., 0., 0., 0., 0., 0., 0., 0., 0., 232., 0.,
          4.84067932e+02, 9.57020605e+03, 8.27278125e+03, 4.10228027e+03,
          1.57253455e+03, 7.30867188e+03, 5.10251611e+03, 8.31511328e+03,
          5.01437598e+03, 5.07433936e+03, 4.76096777e+03, 4.64828857e+03,
          3.46098999e+03, 1.09279199e+04, 4.77701270e+03, 4.97605078e+03,
          4.74055859e+03, 3.75390137e+03, 3.15252734e+04, 2.32096719e+04,
          2.15470879e+04, 2.31666465e+04, 1.61452939e+04, 2.09868574e+04,
          8.17227188e+04, 8.91471563e+04, 4.06286758e+04, 2.08720840e+04,
          1.42929961e+04, 2.20290293e+04, 3.46720742e+04, 5.04802969e+04,
          6.45375117e+04, 7.78395625e+04 ]
      - [ 6.20966988e+01, 4.25491486e+01, 0., 0., 0., 0., 0., 0., 0., 0.,
          0., 0., 0., 0., 0., 0., 2.19706406e+04, 7.37083301e+03,
          7.77700439e+03, 1.56287872e+02, 1.04730127e+03, 1.60339905e+02,
          4.71913376e+01, 1.85422192e+01, 9.14628220e+01, 6.81211853e+02,
          7.13133911e+02, 4.23966162e+03, 5.47359863e+03, 1.23079321e+03,
          2.80598486e+03, 5.15881494e+03, 8.69139160e+03, 3.41842627e+03,
          6.06939551e+03, 1.00489346e+04, 5.28664795e+03, 2.06898169e+03,
          6.23747656e+03, 4.81058643e+03, 4.10875977e+03, 6.36356787e+03,
          2.50724197e+02, 2.87402573e+01, 9.05688705e+01, 2.28949036e+02,
          2.57949951e+03, 4.57358057e+03, 8.08526719e+04, 7.04324609e+04,
          7.42954219e+04, 5.38881055e+04, 3.21939922e+04, 2.16929941e+04,
          2.56919160e+04, 3.96727578e+04, 1.24706313e+05, 8.10807578e+04,
          5.79285039e+04, 4.97308789e+04, 3.47632695e+04, 2.15987852e+04,
          2.63060840e+04, 4.17380430e+04 ]
      - [ 5.11152496e+02, 6.11021080e+01, 0., 0., 0., 0., 0., 0., 0., 0.,
          0., 0., 0., 0., 0., 0., 8.50484180e+03, 1.43677539e+03,
          4.85700073e+02, 2.79663887e+01, 2.53486832e+02, 1.61553745e+01,
          3.69436493e+01, 2.32097912e+01, 2.76418343e+01, 3.46912575e+01,
          1.03030872e+01, 2.28824558e+01, 2.61544056e+01, 5.25315613e+02,
          8.83419312e+02, 4.27227966e+02, 1.77095117e+03, 9.40329437e+01,
          2.10321808e+01, 1.33956242e+01, 4.58247871e+01, 7.61577368e+00,
          3.41152229e+01, 2.67559395e+01, 3.05858536e+01, 3.01020775e+01,
          8.94427204e+00, 1.65225945e+01, 3.60726852e+01, 1.16832390e+01,
          5.64721565e+01, 6.32455540e+00, 7.31710938e+04, 5.53290781e+04,
          6.05530156e+04, 4.49831992e+04, 2.71780410e+04, 2.26219531e+04,
          4.83916563e+04, 6.05109336e+04, 6.61799922e+04, 8.16398125e+04,
          4.47415000e+04, 3.28667930e+04, 3.21151973e+04, 2.85179980e+04,
          4.79315039e+04, 4.84495039e+04 ]
      - [ 0., 0., 0., 0., 0., 0., 0., 0., 0., 0., 0., 0., 0., 0., 0., 0.,
          2.48388135e+03, 2.16695923e+03, 4.82263477e+03, 1.49655106e+02,
          1.27854958e+02, 5.72148514e+01, 8.41358414e+01, 2.67912483e+01,
          6.57575607e+01, 4.30040970e+01, 1.34467249e+01, 7.90661011e+01,
          1.86882462e+02, 1.64424573e+03, 7.06001270e+03, 5.89893408e+03,
          5.20370459e+03, 3.47694678e+03, 4.47038184e+03, 3.05580029e+03,
          6.92090381e+03, 8.68329199e+03, 7.83733008e+03, 4.17516455e+03,
          1.30013330e+03, 2.23057544e+03, 6.55196075e+01, 1.62243298e+03,
          7.38938904e+02, 1.16476172e+03, 4.16930762e+03, 4.61191162e+03,
          3.63614102e+04, 5.75888867e+04, 6.04962148e+04, 5.64849688e+04,
          6.63228125e+04, 7.08526328e+04, 8.42202188e+04, 8.23613828e+04,
          5.41601055e+04, 7.08718906e+04, 4.28614922e+04, 4.35936563e+04,
          8.25116641e+04, 9.56745234e+04, 9.90933594e+04, 6.30027344e+04 ]
      - [ 1.21365947e+04, 1.87439316e+02, 3.88379593e+01, 0.,
          3.00665913e+01, 6.42285690e+01, 2.25947113e+02, 8.22474426e+02,
          5.81499023e+02, 0., 0., 0., 0., 0., 3.03270721e+02,
          4.09843359e+03, 2.33623223e+04, 7.47524658e+03, 5.74774475e+02,
          6.02387207e+02, 4.31394836e+02, 5.43169937e+01, 6.56528473e+01,
          6.01070671e+01, 4.95451563e+03, 8.10955566e+03, 1.52284534e+03,
          3.93240692e+02, 1.70235645e+03, 1.60183643e+03, 7.43380518e+03,
          1.38680537e+04, 7.84666901e+01, 2.59114502e+03, 2.14279199e+03,
          1.81453809e+03, 2.91662915e+03, 1.64769983e+03, 1.53065247e+03,
          8.92252148e+03, 4.77044531e+03, 6.77506226e+02, 2.04469727e+02,
          4.84100418e+01, 4.30804939e+01, 1.76157742e+01, 6.91206131e+01,
          1.10042366e+02, 6.08755273e+04, 3.89627109e+04, 2.73241523e+04,
          2.20884180e+04, 2.60024512e+04, 1.53056367e+04, 2.09805215e+04,
          4.26426055e+04, 7.45995859e+04, 4.90143359e+04, 3.85164141e+04,
          2.51895684e+04, 1.91913633e+04, 1.69472715e+04, 2.03285098e+04,
          3.24809023e+04 ]
      - [ 0., 0., 0., 0., 0., 0., 0., 0., 0., 0., 0., 0., 0., 0., 0., 0.,
          146., 0., 0., 0., 0., 0., 0., 0., 0., 0., 0., 0., 146., 0.,
          1.17726994e+01, 3.58924780e+03, 6.65707703e+01, 7.65538428e+03,
          1.09677305e+04, 3.06882690e+03, 2.94255176e+03, 2.80370508e+03,
          2.89602881e+03, 9.07417383e+03, 5.88489014e+02, 2.35232361e+02,
          1.17709351e+02, 3.86696167e+01, 2.45707664e+01, 4.47213602e+00,
          2.42711258e+01, 3.61923790e+01, 4.46641094e+04, 3.29385977e+04,
          1.48131338e+04, 1.79821426e+04, 2.38108555e+04, 3.82543672e+04,
          3.63863320e+04, 7.37543047e+04, 3.18555527e+04, 3.92394141e+04,
          3.48852969e+04, 2.72947070e+04, 2.10781934e+04, 2.78926309e+04,
          4.96481680e+04, 7.27073047e+04 ]
      - [ 0., 0., 0., 0., 0., 0., 0., 0., 0., 0., 0., 0., 0., 0., 0., 0.,
          8.68090430e+03, 8.04667578e+03, 4.01733057e+03, 2.01797363e+02,
          1.16778763e+02, 2.64908695e+01, 4.42442131e+01, 4.25522423e+01,
          6.90172348e+01, 1.11169487e+02, 4.39513168e+01, 2.09104080e+01,
          3.30372241e+03, 5.61481787e+03, 3.46810229e+03, 1.98621660e+04,
          9.49062729e+01, 1.25985742e+03, 4.55134961e+03, 1.35959302e+03,
          6.53535339e+02, 2.42453198e+03, 2.49277490e+03, 2.13492529e+03,
          4.37680023e+02, 6.71057205e+01, 1.03030872e+01, 3.23692894e+01,
          2.91622772e+01, 8.94427204e+00, 2.70441551e+01, 1.84946442e+01,
          4.14254414e+04, 3.51134648e+04, 2.90433945e+04, 5.28315742e+04,
          3.52085586e+04, 4.45113633e+04, 4.06852188e+04, 6.66185391e+04,
          7.13833203e+04, 5.14178164e+04, 3.76502930e+04, 3.20794160e+04,
          3.99687305e+04, 3.53220273e+04, 5.73439336e+04, 6.26206250e+04 ]
      - [ 2., 1.41421354e+00, 0., 0., 2., 0., 0., 0., 0., 0., 0., 0., 0.,
          0., 0., 0., 6.29956641e+03, 8.80019238e+03, 3.03544238e+03,
          5.20533008e+03, 1.99526196e+03, 5.22618286e+02, 7.78704605e+01,
          3.69059937e+02, 9.87431107e+01, 6.40353516e+02, 1.95614777e+02,
          5.23224426e+02, 1.74916370e+03, 9.76727930e+03, 8.64405078e+03,
          3.57190649e+03, 6.33689990e+03, 4.11206982e+03, 4.32822852e+03,
          8.50389258e+03, 6.40772510e+03, 6.25492236e+03, 2.71176050e+03,
          5.20258740e+03, 8.88379004e+03, 6.82166321e+02, 2.89328308e+01,
          4.60922470e+01, 1.01587898e+02, 3.62354507e+01, 1.51142358e+03,
          6.39319629e+03, 7.19441797e+04, 2.82879902e+04, 2.58627637e+04,
          2.09380430e+04, 3.36931289e+04, 4.76501914e+04, 4.83393242e+04,
          7.08154219e+04, 8.47120781e+04, 4.97765313e+04, 3.79278281e+04,
          3.41976602e+04, 4.02156758e+04, 3.19996895e+04, 4.45785742e+04,
          9.22800703e+04 ]
      - [ 0., 0., 0., 0., 0., 0., 0., 0., 0., 0., 0., 0., 0., 0., 0., 0.,
          2.51423569e+02, 1.63305492e+01, 4.47213602e+00, 3.16227770e+00,
          1.42612972e+01, 7.61577368e+00, 1.87883682e+01, 1.26491108e+01,
          1.02462111e+01, 3.53484154e+01, 0., 8.24621105e+00,
          2.55669785e+02, 0., 9.51605301e+01, 8.63692285e+03,
          6.36302979e+03, 1.69414590e+04, 5.79835449e+03, 1.25799248e+04,
          1.78107031e+04, 1.36779990e+04, 1.10185186e+04, 1.26264346e+04,
          5.20918359e+03, 2.62307642e+03, 1.40075061e+03, 1.01898303e+03,
          1.51123364e+03, 1.93583374e+03, 2.71360962e+03, 8.92693848e+03,
          2.71376367e+04, 2.45379297e+04, 1.12627637e+04, 1.21149551e+04,
          1.84869629e+04, 1.70583535e+04, 2.78951113e+04, 5.64505234e+04,
          2.77968145e+04, 3.44470195e+04, 2.93753633e+04, 3.44525234e+04,
          2.67904707e+04, 3.85293398e+04, 5.01516758e+04, 4.22621211e+04 ]
      - [ 2.31098389e+03, 2.03980160e+01, 0., 0., 0., 0., 0., 0., 0., 0.,
          0., 0., 0., 0., 0., 0., 6.66629590e+03, 8.08554230e+01,
          4.47213602e+00, 1.01980391e+01, 2.39162277e+02, 0.,
          1.43716307e+01, 1.22176628e+01, 1.51622772e+01, 1.01289902e+01,
          0., 3.16227770e+00, 14., 8.94427204e+00, 9.89949512e+00, 0.,
          1.83730499e+02, 4.84445648e+02, 6.68569153e+02, 1.34945081e+03,
          2.27177832e+03, 3.65144958e+02, 3.21269470e+02, 2.77812775e+02,
          1.26367981e+02, 2.88289757e+01, 4.47213602e+00, 3.16227770e+00,
          1.31622772e+01, 4.47213602e+00, 7.07106781e+00, 1.77481308e+01,
          2.46126641e+04, 4.52526445e+04, 3.22507246e+04, 5.83750664e+04,
          5.92300781e+04, 3.80418984e+04, 3.07921270e+04, 2.69233984e+04,
          4.67692617e+04, 3.48621797e+04, 3.29162148e+04, 7.43039688e+04,
          4.40596641e+04, 3.25930645e+04, 4.87885352e+04, 3.86867891e+04 ]
      - [ 0., 0., 0., 0., 0., 0., 0., 0., 0., 0., 0., 0., 0., 0., 0., 0.,
          2.36317188e+03, 3.35778198e+03, 2.73980859e+03, 1.66619102e+04,
          6.09510938e+03, 7.03352490e+03, 3.20731079e+03, 6.66364075e+02,
          8.94024429e+01, 1.35968597e+02, 2.92673511e+03, 8.77116406e+03,
          8.29320215e+03, 4.24596045e+03, 9.35493555e+03, 3.14314219e+04,
          3.21020288e+03, 4.77706641e+03, 1.47391807e+04, 6.15458350e+03,
          3.23933594e+02, 1.10256187e+02, 8.91423157e+02, 1.03235518e+04,
          7.78903857e+03, 3.79002380e+02, 2.63046326e+02, 1.53672867e+02,
          2.49945007e+02, 8.25213699e+01, 2.68700562e+01, 4.48943863e+01,
          1.62793340e+04, 2.18403770e+04, 5.93749102e+04, 5.86755156e+04,
          4.42633047e+04, 8.42366797e+04, 5.88801211e+04, 3.44988359e+04,
          3.25009160e+04, 2.80326914e+04, 5.46802969e+04, 5.37510430e+04,
          6.11541484e+04, 5.36402383e+04, 2.88834199e+04, 4.14862539e+04 ]
      - [ 2.31065991e+03, 2.31405964e+01, 0., 0., 0., 0., 0., 0., 0., 0.,
          0., 0., 0., 0., 0., 0., 7.43766504e+03, 9.20360474e+02,
          2.33982007e+03, 1.68330957e+03, 1.32673718e+03, 5.83095169e+00,
          2.45852585e+01, 5.09901953e+00, 9.16227722e+00, 3.58143311e+01,
          0., 3.35405811e+03, 1.17962305e+03, 6.36256653e+02,
          6.69546127e+01, 1.51835205e+03, 0., 0., 0., 0., 0., 0., 0., 0.,
          0., 0., 0., 0., 0., 0., 0., 0., 2.70942969e+04, 3.03276855e+04,
          4.05910859e+04, 3.53854805e+04, 2.69612461e+04, 2.14015918e+04,
          2.99294434e+04, 1.64150137e+04, 4.24162500e+04, 2.96868555e+04,
          3.51398086e+04, 3.13659336e+04, 3.34373867e+04, 3.38696719e+04,
          2.01886934e+04, 1.37802529e+04 ]
      - [ 0., 0., 0., 0., 0., 0., 0., 0., 0., 0., 0., 0., 0., 0., 0., 0.,
          6.89507019e+02, 6.12015503e+02, 9.36967346e+02, 5.72574219e+02,
          1.44906006e+03, 2.64341736e+02, 8.48528099e+00, 0.,
          4.17481308e+01, 1.86142712e+01, 1.47752237e+01, 2.28471489e+01,
          2.11099014e+02, 1.10283524e+02, 4.92648340e+03, 5.97484326e+03,
          6., 6.22253952e+01, 1.23030444e+03, 1.44318250e+03,
          2.43559497e+03, 1.44116638e+03, 1.26070381e+02, 1.55617188e+03,
          200., 4.24264050e+00, 0., 0., 1.43245554e+01, 0.,
          1.29574175e+01, 0., 4.08967930e+04, 2.97968301e+04,
          3.95737852e+04, 2.51115039e+04, 4.02383203e+04, 4.66186914e+04,
          4.38513398e+04, 4.36350117e+04, 4.37922422e+04, 5.41263750e+04,
          2.75258086e+04, 2.24987539e+04, 2.53923379e+04, 7.05039844e+04,
          3.26629375e+04, 5.11327617e+04 ]
      - [ 0., 0., 0., 3.16227770e+00, 196., 0., 1.14262024e+02,
          1.61314102e+02, 1.55080627e+02, 1.41421354e+00, 0., 0., 90.,
          0., 4.24264050e+00, 0., 2.53486832e+02, 2.12132034e+01,
          4.47213602e+00, 6.32455540e+00, 36., 4.47213602e+00,
          2.26274166e+01, 0., 1.82612972e+01, 1.02066216e+02, 0.,
          1.02333450e+01, 3.69162292e+02, 0., 3.54885712e+02,
          9.64504102e+03, 3.21700859e+01, 3.84243050e+01, 1.58738899e+01,
          2.04789600e+01, 3.57481308e+01, 4.47213602e+00, 1.01878273e+02,
          2.05747412e+03, 2.49360321e+02, 4.73575325e+01, 1.61553745e+01,
          1.58113880e+01, 4., 0., 2.88619614e+01, 9.48683357e+00,
          2.87899941e+04, 2.08672344e+04, 2.38665117e+04, 1.72381797e+04,
          3.50231797e+04, 4.05557500e+04, 3.48696563e+04, 5.76689883e+04,
          2.72878477e+04, 3.20335078e+04, 2.02447266e+04, 2.28013301e+04,
          2.14968477e+04, 4.24956680e+04, 4.07408789e+04, 5.12579922e+04 ]
      - [ 1.43245554e+01, 7.07106781e+00, 7.21110249e+00, 3.16227770e+00,
          1.63245544e+01, 0., 1.41421354e+00, 3.16227770e+00,
          1.71622772e+01, 4.24264050e+00, 0., 1.64924221e+01, 10., 0.,
          8.48528099e+00, 3.16227770e+00, 1.24540173e+03, 2.54223706e+03,
          1.34909023e+04, 7.52120898e+03, 7.56761475e+03, 1.46803845e+03,
          7.92433548e+01, 3.61772957e+01, 7.25918198e+01, 4.09106885e+03,
          1.15444238e+04, 8.51207214e+02, 4.99453662e+03, 1.21947471e+04,
          2.34131323e+03, 3.30250269e+03, 1.20450605e+04, 1.16479746e+04,
          9.39475879e+03, 7.43831970e+02, 2.30164380e+03, 6.85412793e+03,
          3.29390576e+03, 8.51946777e+03, 1.64605371e+04, 7.60538867e+03,
          2.65720483e+03, 3.35624829e+03, 3.33454639e+03, 2.09996167e+03,
          4.59087744e+03, 6.91150977e+03, 6.53680469e+04, 4.91619492e+04,
          4.17975430e+04, 2.44022207e+04, 1.89745332e+04, 3.45390977e+04,
          6.97918438e+04, 6.68466563e+04, 6.80313906e+04, 6.87685938e+04,
          6.37093672e+04, 3.28971055e+04, 3.22555020e+04, 6.10865820e+04,
          4.96523125e+04, 5.77460820e+04 ]
      - [ 0., 0., 0., 0., 0., 0., 0., 0., 0., 0., 0., 0., 0., 0., 0., 0.,
          1.31058508e+03, 6.11761719e+02, 4.48714996e+02, 2.28320637e+01,
          4.17330437e+01, 0., 3.26669464e+01, 1.45858526e+01,
          2.58113880e+01, 5.38801498e+01, 1.44721355e+01, 3.16227770e+00,
          1.68072693e+02, 8.94427204e+00, 7.91851379e+02, 3.43096289e+03,
          3.43663965e+03, 3.50993115e+03, 3.16059546e+03, 1.43361890e+03,
          3.07395215e+03, 1.51175430e+02, 2.70817902e+02, 2.37343848e+03,
          5.93371143e+03, 2.72949170e+03, 3.00832739e+03, 1.75649277e+04,
          2.22037773e+04, 2.75402051e+03, 6.35811096e+02, 2.25414526e+03,
          2.68345977e+04, 3.18734980e+04, 3.52048125e+04, 5.25570117e+04,
          9.34557969e+04, 5.49982852e+04, 3.62945625e+04, 2.64813770e+04,
          2.23418281e+04, 3.04792480e+04, 4.38773711e+04, 6.38022383e+04,
          1.03521148e+05, 4.99630625e+04, 3.48868516e+04, 2.56494766e+04 ]
      - [ 2.29919580e+03, 3.85474472e+01, 0., 0., 0., 0., 0., 0., 0., 0.,
          0., 0., 0., 0., 0., 0., 1.74763301e+04, 1.83805586e+04,
          9.05541895e+03, 1.55269104e+03, 4.61626855e+03, 3.62545898e+02,
          4.98612823e+02, 6.02014343e+02, 2.55569595e+02, 3.88920728e+03,
          4.82436133e+03, 5.56844971e+03, 5.56498975e+03, 4.56857910e+03,
          6.37453467e+03, 2.96075146e+03, 2.18113880e+01, 1.65227356e+03,
          9.61088684e+02, 3.39175488e+03, 1.48081689e+03, 9.91420593e+02,
          1.50927991e+03, 2.40726852e+01, 1.34235744e+01, 2.70441551e+01,
          8.60232544e+00, 3.47850533e+01, 5.18488770e+01, 1.88943405e+01,
          3.04726849e+01, 2.75500298e+01, 9.69890859e+04, 4.33870352e+04,
          3.23251777e+04, 5.62016797e+04, 6.04943711e+04, 5.68148164e+04,
          5.92405000e+04, 7.83726563e+04, 1.22468531e+05, 5.49078281e+04,
          4.35734336e+04, 3.41729102e+04, 3.31557617e+04, 4.20495000e+04,
          5.89075234e+04, 8.22890703e+04 ]
      - [ 2.18326953e+03, 1.04442005e+01, 0., 0., 34., 0., 0., 0., 0.,
          0., 0., 0., 0., 0., 0., 0., 3.98351050e+03, 3.16903877e+01,
          1.16832390e+01, 1.26491108e+01, 2.17055389e+02, 0.,
          7.24516535e+00, 3.16227770e+00, 1.94235744e+01, 2.13873005e+01,
          0., 1.14084892e+01, 1.54868336e+01, 5.83095169e+00,
          1.57304459e+01, 6.32455540e+00, 3.18774609e+03, 4.51197754e+03,
          4.42513281e+03, 2.26922607e+03, 7.73582813e+03, 5.11645654e+03,
          5.30161963e+03, 2.17158838e+03, 3.52895996e+02, 2.59148350e+01,
          2.06061745e+01, 5.60058250e+01, 3.61980400e+01, 1.89054127e+01,
          5.01592255e+01, 3.79782776e+02, 3.70207539e+04, 1.69686250e+04,
          2.91725117e+04, 1.80519336e+04, 1.28362891e+04, 1.15236475e+04,
          3.94011797e+04, 3.32591250e+04, 3.78531563e+04, 2.28540371e+04,
          2.19095566e+04, 2.81417109e+04, 2.33680723e+04, 2.31257266e+04,
          3.57151523e+04, 2.62058711e+04 ]
      - [ 0., 0., 0., 0., 0., 0., 0., 0., 0., 0., 0., 0., 0., 0., 0., 0.,
          7.13457715e+03, 8.44708301e+03, 8.49573340e+03, 5.29830713e+03,
          2.22606644e+02, 8.67438354e+01, 4.82573586e+01, 2.36944714e+01,
          3.85225945e+01, 9.93575516e+01, 2.65211868e+01, 3.49954147e+01,
          2.28705347e+03, 1.00328604e+04, 1.29030557e+04, 1.04132539e+04,
          7.16227770e+00, 3.25269127e+01, 1.46277515e+03, 4.75771533e+03,
          1.25972498e+03, 1.00846814e+03, 6.19349915e+02, 1.62812781e+03,
          2.12324554e+02, 2.72736492e+01, 0., 6.32455540e+00,
          4.19182167e+01, 0., 2.90584717e+01, 1.45858526e+01,
          2.20585820e+04, 1.83441563e+04, 2.73381895e+04, 5.28440430e+04,
          3.49764805e+04, 3.38981797e+04, 5.43016367e+04, 4.91111133e+04,
          2.09988984e+04, 2.40102754e+04, 4.99653672e+04, 4.53569258e+04,
          4.68894258e+04, 3.74670391e+04, 2.07281328e+04, 4.14059961e+04 ]
      - [ 1.04100746e+02, 0., 0., 0., 4., 0., 0., 0., 0., 0., 0., 0., 0.,
          0., 0., 0., 2.02819199e+02, 1.90732613e+01, 5.83095169e+00,
          6.32455540e+00, 3.02333450e+01, 0., 1.55563498e+01,
          3.16227770e+00, 1.11622772e+01, 5.65685415e+00, 8.94427204e+00,
          1.02333460e+01, 1.51622772e+01, 8.94427204e+00, 1.43716307e+01,
          1.02333450e+01, 6.29942188e+03, 2.43142944e+03, 3.46533691e+03,
          1.48287188e+04, 2.05895605e+04, 2.79320176e+04, 1.08734932e+04,
          3.32092163e+02, 2.62999341e+03, 5.76271301e+02, 6.06913635e+02,
          1.31404285e+03, 2.10930029e+03, 7.45747998e+03, 1.10793418e+04,
          4.56029443e+03, 3.95316836e+04, 2.86940586e+04, 2.25538340e+04,
          2.06884121e+04, 1.42470371e+04, 9.63375586e+03, 4.75363672e+04,
          3.72984766e+04, 5.19599961e+04, 4.55976914e+04, 2.87006309e+04,
          1.65214766e+04, 3.64190742e+04, 3.34559258e+04, 5.36230234e+04,
          4.78028672e+04 ]
      - [ 0., 0., 0., 0., 0., 0., 0., 0., 0., 0., 0., 0., 0., 0., 0., 0.,
          6.26522583e+02, 2.86878643e+01, 2.37498131e+01, 2.55779800e+01,
          4.47838898e+01, 3.51299629e+01, 3.32153969e+01, 1.53799410e+01,
          3.23245544e+01, 5.78293152e+01, 3.19863262e+01, 2.28824577e+01,
          8.62333450e+01, 2.61340389e+01, 3.88168526e+01, 8.01565857e+02,
          5.16227770e+00, 1.43716307e+01, 0., 0., 2.51622772e+01,
          1.78885441e+01, 1.86142712e+01, 2.55049164e+02, 2.73162292e+02,
          8.65937901e+00, 5.83095169e+00, 6.32455540e+00, 3.06491108e+01,
          0., 1.97989902e+01, 1.45858526e+01, 3.36289727e+04,
          3.67593164e+04, 2.38306367e+04, 2.50369531e+04, 3.87722695e+04,
          3.41218789e+04, 2.48503477e+04, 2.60303066e+04, 2.28982480e+04,
          2.17544395e+04, 3.19600898e+04, 3.62132656e+04, 44131.,
          2.48092246e+04, 1.97131973e+04, 1.69379648e+04 ]
      - [ 2.28042627e+03, 6.96074219e+01, 0., 0., 0., 0., 0., 0., 0., 0.,
          0., 0., 0., 0., 0., 0., 9.41309082e+03, 9.26242493e+02,
          7.24447083e+02, 1.39107703e+03, 3.39434174e+02, 1.03030872e+01,
          5.41437073e+01, 1.97201786e+01, 3.18113880e+01, 2.99279785e+01,
          0., 7.42480621e+01, 7.60726242e+01, 1.55038904e+03,
          2.06219238e+03, 1.07603516e+03, 2.32508423e+03, 1.12303623e+04,
          8.14347852e+03, 1.25472188e+04, 9.05559375e+03, 1.39659697e+04,
          6.11484521e+03, 4.08894507e+03, 3.28227002e+03, 1.06919055e+03,
          2.67035278e+03, 4.60726654e+02, 7.29478271e+02, 3.86611963e+03,
          1.63906042e+03, 2.52253540e+03, 4.43382266e+04, 5.49648047e+04,
          5.24950430e+04, 3.64795508e+04, 3.07188418e+04, 3.02248320e+04,
          4.83799531e+04, 4.58153750e+04, 6.34970547e+04, 6.25731133e+04,
          5.62700391e+04, 4.62791602e+04, 4.26018867e+04, 4.98277617e+04,
          4.29542578e+04, 5.12376211e+04 ]
      - [ 0., 0., 0., 0., 0., 0., 0., 0., 0., 0., 0., 0., 0., 0., 0., 0.,
          1.40178796e+03, 4.66038232e+03, 7.01587158e+03, 1.02554749e+02,
          3.58503387e+02, 4.47213602e+00, 2.70995522e+01, 7.07106829e+00,
          2., 1.30420542e+01, 2.02642288e+01, 1.63471826e+03,
          5.72939844e+03, 1.93670459e+03, 2.01839514e+03, 8.48652637e+03,
          2.54059741e+03, 4.33970605e+03, 3.89163818e+03, 7.18892383e+03,
          1.00860732e+04, 4.53096387e+03, 4.87627148e+03, 4.00005811e+03,
          3.30910400e+02, 1.45326416e+02, 1.34995880e+02, 4.45040703e+01,
          1.61528595e+02, 2.64584618e+01, 6.87379074e+01, 1.21455188e+03,
          4.63266055e+04, 3.56329688e+04, 2.39865703e+04, 2.42971035e+04,
          2.95712656e+04, 6.50996563e+04, 4.50680352e+04, 8.18321875e+04,
          5.49235664e+04, 3.91056094e+04, 2.70346328e+04, 2.51990254e+04,
          3.39707773e+04, 6.24411875e+04, 6.62947969e+04, 7.46275547e+04 ]
      - [ 8.70299988e+02, 4.80282402e+01, 0., 0., 0., 0., 0., 0., 0., 0.,
          0., 0., 0., 0., 0., 0., 8.12285254e+03, 4.85807831e+02, 0., 0.,
          2.35162277e+02, 0., 1.41421354e+00, 0., 4., 4.24264050e+00, 0.,
          0., 0., 0., 2.82842708e+00, 0., 2.05959619e+03, 4.54915869e+03,
          3.78455298e+03, 2.87597607e+03, 7.07513672e+03, 2.86586084e+03,
          2.25051685e+03, 1.24643628e+03, 4.09657959e+02, 1.01342676e+03,
          1.24103040e+03, 2.27232407e+02, 1.39197601e+02, 1.92397705e+02,
          1.33131042e+02, 1.07012192e+02, 4.86851484e+04, 6.40637305e+04,
          1.26670570e+05, 7.70712500e+04, 5.74499727e+04, 4.93278203e+04,
          3.80426953e+04, 3.74620859e+04, 4.64248359e+04, 5.35085313e+04,
          1.23958188e+05, 1.04931305e+05, 5.89617461e+04, 5.00012891e+04,
          3.25362832e+04, 3.89452969e+04 ]
      - [ 4.00050140e+02, 0., 0., 0., 8., 0., 0., 0., 0., 0., 0., 0., 0.,
          0., 0., 0., 7.37403076e+03, 7.73582520e+03, 4.29138525e+03,
          5.91750366e+02, 9.36848755e+01, 2.19649906e+01, 3.89335632e+01,
          2.86708603e+01, 2.03245544e+01, 5.28481941e+01, 1.34164085e+01,
          8.63917908e+02, 2.10459814e+03, 4.21131152e+03, 3.48242676e+03,
          7.37151221e+03, 4.25454297e+03, 5.50556934e+03, 9.02834668e+03,
          1.29361777e+04, 1.54914219e+04, 1.75686855e+04, 6.50678906e+03,
          6.62880005e+02, 1.40318893e+02, 9.20983887e+01, 5.47341537e+01,
          8.00292053e+01, 1.39360764e+02, 4.09323196e+01, 8.54859009e+01,
          3.03613110e+03, 4.36749570e+04, 4.77686719e+04, 4.67071523e+04,
          4.12505938e+04, 5.13929297e+04, 5.85193125e+04, 5.72528945e+04,
          4.36952695e+04, 6.30802344e+04, 5.32058711e+04, 6.95459141e+04,
          6.45435156e+04, 5.27382617e+04, 6.29835039e+04, 7.16645703e+04,
          3.59958867e+04 ]
      - [ 0., 0., 0., 0., 0., 0., 0., 0., 0., 0., 0., 0., 0., 0., 0., 0.,
          7.71985645e+03, 1.22844519e+03, 1.42126703e+01, 2.52982216e+01,
          2.61379944e+02, 1.44721355e+01, 4.27064743e+01, 3.16227770e+00,
          2.43245544e+01, 2.49004688e+01, 4.47213602e+00, 1.33956242e+01,
          2.75563538e+02, 2.58305298e+02, 1.39619766e+02, 8.81379822e+02,
          2.21973125e+04, 2.79735815e+03, 5.56269409e+02, 2.84610016e+02,
